digraph Tree {
node [shape=box, style="filled, rounded", color="black", fontname="helvetica"] ;
edge [fontname="helvetica"] ;
0 [label="perimeter <= 858.951\nentropy = 2.661\nsamples = 4335\nvalue = [988, 697, 292, 834, 1750, 925, 1319]\nclass = DERMASON", fillcolor="#eff2fd"] ;
1 [label="eccentricity <= 0.677\nentropy = 1.778\nsamples = 2633\nvalue = [967, 22, 0, 1, 1750, 186, 1203]\nclass = DERMASON", fillcolor="#dadffa"] ;
0 -> 1 [labeldistance=2.5, labelangle=45, headlabel="True"] ;
2 [label="shapefactor1 <= 0.007\nentropy = 0.689\nsamples = 670\nvalue = [896, 0, 0, 1, 139, 0, 17]\nclass = SEKER", fillcolor="#e9975b"] ;
1 -> 2 ;
3 [label="shapefactor3 <= 0.778\nentropy = 0.304\nsamples = 583\nvalue = [890, 0, 0, 1, 23, 0, 16]\nclass = SEKER", fillcolor="#e68742"] ;
2 -> 3 ;
4 [label="shapefactor1 <= 0.007\nentropy = 0.843\nsamples = 131\nvalue = [184, 0, 0, 1, 20, 0, 16]\nclass = SEKER", fillcolor="#ea985d"] ;
3 -> 4 ;
5 [label="area <= 40402.5\nentropy = 0.535\nsamples = 110\nvalue = [169, 0, 0, 1, 7, 0, 8]\nclass = SEKER", fillcolor="#e78c4b"] ;
4 -> 5 ;
6 [label="shapefactor3 <= 0.753\nentropy = 0.564\nsamples = 45\nvalue = [64, 0, 0, 0, 7, 0, 1]\nclass = SEKER", fillcolor="#e89151"] ;
5 -> 6 ;
7 [label="shapefactor3 <= 0.751\nentropy = 1.116\nsamples = 14\nvalue = [14, 0, 0, 0, 6, 0, 1]\nclass = SEKER", fillcolor="#f1bc95"] ;
6 -> 7 ;
8 [label="shapefactor1 <= 0.007\nentropy = 0.669\nsamples = 12\nvalue = [14, 0, 0, 0, 1, 0, 1]\nclass = SEKER", fillcolor="#e89253"] ;
7 -> 8 ;
9 [label="entropy = 1.0\nsamples = 2\nvalue = [1, 0, 0, 0, 0, 0, 1]\nclass = SEKER", fillcolor="#ffffff"] ;
8 -> 9 ;
10 [label="minoraxislength <= 189.578\nentropy = 0.371\nsamples = 10\nvalue = [13, 0, 0, 0, 1, 0, 0]\nclass = SEKER", fillcolor="#e78b48"] ;
8 -> 10 ;
11 [label="eccentricity <= 0.668\nentropy = 0.811\nsamples = 3\nvalue = [3, 0, 0, 0, 1, 0, 0]\nclass = SEKER", fillcolor="#eeab7b"] ;
10 -> 11 ;
12 [label="entropy = 0.0\nsamples = 2\nvalue = [3, 0, 0, 0, 0, 0, 0]\nclass = SEKER", fillcolor="#e58139"] ;
11 -> 12 ;
13 [label="entropy = 0.0\nsamples = 1\nvalue = [0, 0, 0, 0, 1, 0, 0]\nclass = DERMASON", fillcolor="#3956e5"] ;
11 -> 13 ;
14 [label="entropy = 0.0\nsamples = 7\nvalue = [10, 0, 0, 0, 0, 0, 0]\nclass = SEKER", fillcolor="#e58139"] ;
10 -> 14 ;
15 [label="entropy = 0.0\nsamples = 2\nvalue = [0, 0, 0, 0, 5, 0, 0]\nclass = DERMASON", fillcolor="#3956e5"] ;
7 -> 15 ;
16 [label="minoraxislength <= 198.722\nentropy = 0.139\nsamples = 31\nvalue = [50, 0, 0, 0, 1, 0, 0]\nclass = SEKER", fillcolor="#e6843d"] ;
6 -> 16 ;
17 [label="entropy = 0.0\nsamples = 30\nvalue = [50, 0, 0, 0, 0, 0, 0]\nclass = SEKER", fillcolor="#e58139"] ;
16 -> 17 ;
18 [label="entropy = 0.0\nsamples = 1\nvalue = [0, 0, 0, 0, 1, 0, 0]\nclass = DERMASON", fillcolor="#3956e5"] ;
16 -> 18 ;
19 [label="area <= 40916.5\nentropy = 0.407\nsamples = 65\nvalue = [105, 0, 0, 1, 0, 0, 7]\nclass = SEKER", fillcolor="#e78b48"] ;
5 -> 19 ;
20 [label="convexarea <= 40867.5\nentropy = 0.722\nsamples = 3\nvalue = [1, 0, 0, 0, 0, 0, 4]\nclass = SIRA", fillcolor="#ec6aa4"] ;
19 -> 20 ;
21 [label="entropy = 0.0\nsamples = 1\nvalue = [1, 0, 0, 0, 0, 0, 0]\nclass = SEKER", fillcolor="#e58139"] ;
20 -> 21 ;
22 [label="entropy = 0.0\nsamples = 2\nvalue = [0, 0, 0, 0, 0, 0, 4]\nclass = SIRA", fillcolor="#e53986"] ;
20 -> 22 ;
23 [label="extent <= 0.803\nentropy = 0.259\nsamples = 62\nvalue = [104, 0, 0, 1, 0, 0, 3]\nclass = SEKER", fillcolor="#e68641"] ;
19 -> 23 ;
24 [label="shapefactor3 <= 0.769\nentropy = 0.154\nsamples = 61\nvalue = [104, 0, 0, 1, 0, 0, 1]\nclass = SEKER", fillcolor="#e5833d"] ;
23 -> 24 ;
25 [label="entropy = 0.0\nsamples = 51\nvalue = [90, 0, 0, 0, 0, 0, 0]\nclass = SEKER", fillcolor="#e58139"] ;
24 -> 25 ;
26 [label="shapefactor3 <= 0.77\nentropy = 0.669\nsamples = 10\nvalue = [14, 0, 0, 1, 0, 0, 1]\nclass = SEKER", fillcolor="#e89253"] ;
24 -> 26 ;
27 [label="entropy = 0.0\nsamples = 1\nvalue = [0, 0, 0, 1, 0, 0, 0]\nclass = CALI", fillcolor="#39e5e2"] ;
26 -> 27 ;
28 [label="shapefactor1 <= 0.006\nentropy = 0.353\nsamples = 9\nvalue = [14, 0, 0, 0, 0, 0, 1]\nclass = SEKER", fillcolor="#e78a47"] ;
26 -> 28 ;
29 [label="entropy = 0.0\nsamples = 6\nvalue = [11, 0, 0, 0, 0, 0, 0]\nclass = SEKER", fillcolor="#e58139"] ;
28 -> 29 ;
30 [label="area <= 41824.5\nentropy = 0.811\nsamples = 3\nvalue = [3, 0, 0, 0, 0, 0, 1]\nclass = SEKER", fillcolor="#eeab7b"] ;
28 -> 30 ;
31 [label="entropy = 0.0\nsamples = 2\nvalue = [3, 0, 0, 0, 0, 0, 0]\nclass = SEKER", fillcolor="#e58139"] ;
30 -> 31 ;
32 [label="entropy = 0.0\nsamples = 1\nvalue = [0, 0, 0, 0, 0, 0, 1]\nclass = SIRA", fillcolor="#e53986"] ;
30 -> 32 ;
33 [label="entropy = 0.0\nsamples = 1\nvalue = [0, 0, 0, 0, 0, 0, 2]\nclass = SIRA", fillcolor="#e53986"] ;
23 -> 33 ;
34 [label="eccentricity <= 0.646\nentropy = 1.539\nsamples = 21\nvalue = [15, 0, 0, 0, 13, 0, 8]\nclass = SEKER", fillcolor="#fdf4ee"] ;
4 -> 34 ;
35 [label="eccentricity <= 0.637\nentropy = 1.061\nsamples = 4\nvalue = [1, 0, 0, 0, 1, 0, 6]\nclass = SIRA", fillcolor="#ec72a9"] ;
34 -> 35 ;
36 [label="entropy = 1.0\nsamples = 2\nvalue = [1, 0, 0, 0, 1, 0, 0]\nclass = SEKER", fillcolor="#ffffff"] ;
35 -> 36 ;
37 [label="entropy = 0.0\nsamples = 2\nvalue = [0, 0, 0, 0, 0, 0, 6]\nclass = SIRA", fillcolor="#e53986"] ;
35 -> 37 ;
38 [label="shapefactor4 <= 0.999\nentropy = 1.296\nsamples = 17\nvalue = [14, 0, 0, 0, 12, 0, 2]\nclass = SEKER", fillcolor="#fcefe6"] ;
34 -> 38 ;
39 [label="perimeter <= 705.917\nentropy = 1.267\nsamples = 13\nvalue = [5, 0, 0, 0, 12, 0, 2]\nclass = DERMASON", fillcolor="#9caaf2"] ;
38 -> 39 ;
40 [label="equivdiameter <= 210.026\nentropy = 0.811\nsamples = 11\nvalue = [4, 0, 0, 0, 12, 0, 0]\nclass = DERMASON", fillcolor="#7b8eee"] ;
39 -> 40 ;
41 [label="entropy = 0.0\nsamples = 1\nvalue = [2, 0, 0, 0, 0, 0, 0]\nclass = SEKER", fillcolor="#e58139"] ;
40 -> 41 ;
42 [label="extent <= 0.755\nentropy = 0.592\nsamples = 10\nvalue = [2, 0, 0, 0, 12, 0, 0]\nclass = DERMASON", fillcolor="#5a72e9"] ;
40 -> 42 ;
43 [label="minoraxislength <= 185.293\nentropy = 0.918\nsamples = 4\nvalue = [2, 0, 0, 0, 4, 0, 0]\nclass = DERMASON", fillcolor="#9caaf2"] ;
42 -> 43 ;
44 [label="entropy = 0.0\nsamples = 2\nvalue = [0, 0, 0, 0, 3, 0, 0]\nclass = DERMASON", fillcolor="#3956e5"] ;
43 -> 44 ;
45 [label="entropy = 0.918\nsamples = 2\nvalue = [2, 0, 0, 0, 1, 0, 0]\nclass = SEKER", fillcolor="#f2c09c"] ;
43 -> 45 ;
46 [label="entropy = 0.0\nsamples = 6\nvalue = [0, 0, 0, 0, 8, 0, 0]\nclass = DERMASON", fillcolor="#3956e5"] ;
42 -> 46 ;
47 [label="entropy = 0.918\nsamples = 2\nvalue = [1, 0, 0, 0, 0, 0, 2]\nclass = SIRA", fillcolor="#f29cc2"] ;
39 -> 47 ;
48 [label="entropy = 0.0\nsamples = 4\nvalue = [9, 0, 0, 0, 0, 0, 0]\nclass = SEKER", fillcolor="#e58139"] ;
38 -> 48 ;
49 [label="compactness <= 0.893\nentropy = 0.039\nsamples = 452\nvalue = [706.0, 0.0, 0.0, 0.0, 3.0, 0.0, 0.0]\nclass = SEKER", fillcolor="#e5823a"] ;
3 -> 49 ;
50 [label="majoraxislength <= 234.169\nentropy = 0.137\nsamples = 102\nvalue = [153, 0, 0, 0, 3, 0, 0]\nclass = SEKER", fillcolor="#e6833d"] ;
49 -> 50 ;
51 [label="entropy = 0.0\nsamples = 1\nvalue = [0, 0, 0, 0, 1, 0, 0]\nclass = DERMASON", fillcolor="#3956e5"] ;
50 -> 51 ;
52 [label="extent <= 0.748\nentropy = 0.099\nsamples = 101\nvalue = [153, 0, 0, 0, 2, 0, 0]\nclass = SEKER", fillcolor="#e5833c"] ;
50 -> 52 ;
53 [label="extent <= 0.746\nentropy = 0.619\nsamples = 7\nvalue = [11, 0, 0, 0, 2, 0, 0]\nclass = SEKER", fillcolor="#ea985d"] ;
52 -> 53 ;
54 [label="entropy = 0.0\nsamples = 6\nvalue = [11, 0, 0, 0, 0, 0, 0]\nclass = SEKER", fillcolor="#e58139"] ;
53 -> 54 ;
55 [label="entropy = 0.0\nsamples = 1\nvalue = [0, 0, 0, 0, 2, 0, 0]\nclass = DERMASON", fillcolor="#3956e5"] ;
53 -> 55 ;
56 [label="entropy = 0.0\nsamples = 94\nvalue = [142, 0, 0, 0, 0, 0, 0]\nclass = SEKER", fillcolor="#e58139"] ;
52 -> 56 ;
57 [label="entropy = 0.0\nsamples = 350\nvalue = [553, 0, 0, 0, 0, 0, 0]\nclass = SEKER", fillcolor="#e58139"] ;
49 -> 57 ;
58 [label="convexarea <= 29667.0\nentropy = 0.349\nsamples = 87\nvalue = [6, 0, 0, 0, 116, 0, 1]\nclass = DERMASON", fillcolor="#4560e7"] ;
2 -> 58 ;
59 [label="entropy = 0.0\nsamples = 49\nvalue = [0, 0, 0, 0, 73, 0, 0]\nclass = DERMASON", fillcolor="#3956e5"] ;
58 -> 59 ;
60 [label="shapefactor3 <= 0.796\nentropy = 0.667\nsamples = 38\nvalue = [6, 0, 0, 0, 43, 0, 1]\nclass = DERMASON", fillcolor="#5871e9"] ;
58 -> 60 ;
61 [label="compactness <= 0.866\nentropy = 0.489\nsamples = 36\nvalue = [3.0, 0.0, 0.0, 0.0, 43.0, 0.0, 1.0]\nclass = DERMASON", fillcolor="#4b65e7"] ;
60 -> 61 ;
62 [label="entropy = 0.0\nsamples = 22\nvalue = [0, 0, 0, 0, 27, 0, 0]\nclass = DERMASON", fillcolor="#3956e5"] ;
61 -> 62 ;
63 [label="shapefactor2 <= 0.003\nentropy = 0.884\nsamples = 14\nvalue = [3, 0, 0, 0, 16, 0, 1]\nclass = DERMASON", fillcolor="#687eeb"] ;
61 -> 63 ;
64 [label="shapefactor2 <= 0.003\nentropy = 1.352\nsamples = 6\nvalue = [3, 0, 0, 0, 5, 0, 1]\nclass = DERMASON", fillcolor="#bdc7f6"] ;
63 -> 64 ;
65 [label="entropy = 0.0\nsamples = 2\nvalue = [0, 0, 0, 0, 5, 0, 0]\nclass = DERMASON", fillcolor="#3956e5"] ;
64 -> 65 ;
66 [label="convexarea <= 33043.5\nentropy = 0.811\nsamples = 4\nvalue = [3, 0, 0, 0, 0, 0, 1]\nclass = SEKER", fillcolor="#eeab7b"] ;
64 -> 66 ;
67 [label="entropy = 0.0\nsamples = 2\nvalue = [2, 0, 0, 0, 0, 0, 0]\nclass = SEKER", fillcolor="#e58139"] ;
66 -> 67 ;
68 [label="entropy = 1.0\nsamples = 2\nvalue = [1, 0, 0, 0, 0, 0, 1]\nclass = SEKER", fillcolor="#ffffff"] ;
66 -> 68 ;
69 [label="entropy = 0.0\nsamples = 8\nvalue = [0, 0, 0, 0, 11, 0, 0]\nclass = DERMASON", fillcolor="#3956e5"] ;
63 -> 69 ;
70 [label="entropy = 0.0\nsamples = 2\nvalue = [3, 0, 0, 0, 0, 0, 0]\nclass = SEKER", fillcolor="#e58139"] ;
60 -> 70 ;
71 [label="convexarea <= 39585.0\nentropy = 1.44\nsamples = 1963\nvalue = [71.0, 22.0, 0.0, 0.0, 1611.0, 186.0, 1186.0]\nclass = DERMASON", fillcolor="#d2d9f9"] ;
1 -> 71 ;
72 [label="perimeter <= 705.137\nentropy = 0.583\nsamples = 1065\nvalue = [14, 0, 0, 0, 1496, 22, 140]\nclass = DERMASON", fillcolor="#5069e8"] ;
71 -> 72 ;
73 [label="equivdiameter <= 206.406\nentropy = 0.177\nsamples = 800\nvalue = [8, 0, 0, 0, 1242, 3, 16]\nclass = DERMASON", fillcolor="#3d5ae6"] ;
72 -> 73 ;
74 [label="shapefactor1 <= 0.007\nentropy = 0.042\nsamples = 613\nvalue = [3.0, 0.0, 0.0, 0.0, 952.0, 0.0, 1.0]\nclass = DERMASON", fillcolor="#3a57e5"] ;
73 -> 74 ;
75 [label="shapefactor2 <= 0.002\nentropy = 0.327\nsamples = 28\nvalue = [3, 0, 0, 0, 47, 0, 0]\nclass = DERMASON", fillcolor="#4661e7"] ;
74 -> 75 ;
76 [label="entropy = 0.0\nsamples = 20\nvalue = [0, 0, 0, 0, 36, 0, 0]\nclass = DERMASON", fillcolor="#3956e5"] ;
75 -> 76 ;
77 [label="shapefactor2 <= 0.002\nentropy = 0.75\nsamples = 8\nvalue = [3, 0, 0, 0, 11, 0, 0]\nclass = DERMASON", fillcolor="#6f84ec"] ;
75 -> 77 ;
78 [label="entropy = 0.0\nsamples = 1\nvalue = [3, 0, 0, 0, 0, 0, 0]\nclass = SEKER", fillcolor="#e58139"] ;
77 -> 78 ;
79 [label="entropy = 0.0\nsamples = 7\nvalue = [0, 0, 0, 0, 11, 0, 0]\nclass = DERMASON", fillcolor="#3956e5"] ;
77 -> 79 ;
80 [label="shapefactor4 <= 0.984\nentropy = 0.012\nsamples = 585\nvalue = [0, 0, 0, 0, 905, 0, 1]\nclass = DERMASON", fillcolor="#3956e5"] ;
74 -> 80 ;
81 [label="entropy = 0.918\nsamples = 2\nvalue = [0, 0, 0, 0, 2, 0, 1]\nclass = DERMASON", fillcolor="#9caaf2"] ;
80 -> 81 ;
82 [label="entropy = 0.0\nsamples = 583\nvalue = [0, 0, 0, 0, 903, 0, 0]\nclass = DERMASON", fillcolor="#3956e5"] ;
80 -> 82 ;
83 [label="shapefactor2 <= 0.002\nentropy = 0.472\nsamples = 187\nvalue = [5, 0, 0, 0, 290, 3, 15]\nclass = DERMASON", fillcolor="#4863e7"] ;
73 -> 83 ;
84 [label="shapefactor4 <= 0.991\nentropy = 0.301\nsamples = 158\nvalue = [0, 0, 0, 0, 255, 3, 9]\nclass = DERMASON", fillcolor="#425ee6"] ;
83 -> 84 ;
85 [label="entropy = 0.0\nsamples = 1\nvalue = [0, 0, 0, 0, 0, 2, 0]\nclass = HOROZ", fillcolor="#b139e5"] ;
84 -> 85 ;
86 [label="shapefactor3 <= 0.566\nentropy = 0.25\nsamples = 157\nvalue = [0, 0, 0, 0, 255, 1, 9]\nclass = DERMASON", fillcolor="#415de6"] ;
84 -> 86 ;
87 [label="entropy = 0.0\nsamples = 1\nvalue = [0, 0, 0, 0, 0, 1, 0]\nclass = HOROZ", fillcolor="#b139e5"] ;
86 -> 87 ;
88 [label="extent <= 0.752\nentropy = 0.215\nsamples = 156\nvalue = [0, 0, 0, 0, 255, 0, 9]\nclass = DERMASON", fillcolor="#405ce6"] ;
86 -> 88 ;
89 [label="entropy = 0.0\nsamples = 67\nvalue = [0, 0, 0, 0, 107, 0, 0]\nclass = DERMASON", fillcolor="#3956e5"] ;
88 -> 89 ;
90 [label="extent <= 0.753\nentropy = 0.317\nsamples = 89\nvalue = [0, 0, 0, 0, 148, 0, 9]\nclass = DERMASON", fillcolor="#4560e7"] ;
88 -> 90 ;
91 [label="entropy = 0.0\nsamples = 1\nvalue = [0, 0, 0, 0, 0, 0, 2]\nclass = SIRA", fillcolor="#e53986"] ;
90 -> 91 ;
92 [label="roundness <= 0.895\nentropy = 0.265\nsamples = 88\nvalue = [0, 0, 0, 0, 148, 0, 7]\nclass = DERMASON", fillcolor="#425ee6"] ;
90 -> 92 ;
93 [label="shapefactor4 <= 0.997\nentropy = 0.65\nsamples = 12\nvalue = [0, 0, 0, 0, 20, 0, 4]\nclass = DERMASON", fillcolor="#6178ea"] ;
92 -> 93 ;
94 [label="minoraxislength <= 168.045\nentropy = 0.918\nsamples = 8\nvalue = [0, 0, 0, 0, 8, 0, 4]\nclass = DERMASON", fillcolor="#9caaf2"] ;
93 -> 94 ;
95 [label="roundness <= 0.885\nentropy = 0.503\nsamples = 6\nvalue = [0, 0, 0, 0, 8, 0, 1]\nclass = DERMASON", fillcolor="#526be8"] ;
94 -> 95 ;
96 [label="entropy = 1.0\nsamples = 2\nvalue = [0, 0, 0, 0, 1, 0, 1]\nclass = DERMASON", fillcolor="#ffffff"] ;
95 -> 96 ;
97 [label="entropy = 0.0\nsamples = 4\nvalue = [0, 0, 0, 0, 7, 0, 0]\nclass = DERMASON", fillcolor="#3956e5"] ;
95 -> 97 ;
98 [label="entropy = 0.0\nsamples = 2\nvalue = [0, 0, 0, 0, 0, 0, 3]\nclass = SIRA", fillcolor="#e53986"] ;
94 -> 98 ;
99 [label="entropy = 0.0\nsamples = 4\nvalue = [0, 0, 0, 0, 12, 0, 0]\nclass = DERMASON", fillcolor="#3956e5"] ;
93 -> 99 ;
100 [label="shapefactor1 <= 0.007\nentropy = 0.157\nsamples = 76\nvalue = [0, 0, 0, 0, 128, 0, 3]\nclass = DERMASON", fillcolor="#3e5ae6"] ;
92 -> 100 ;
101 [label="shapefactor3 <= 0.698\nentropy = 0.619\nsamples = 7\nvalue = [0, 0, 0, 0, 11, 0, 2]\nclass = DERMASON", fillcolor="#5d75ea"] ;
100 -> 101 ;
102 [label="entropy = 0.0\nsamples = 5\nvalue = [0, 0, 0, 0, 10, 0, 0]\nclass = DERMASON", fillcolor="#3956e5"] ;
101 -> 102 ;
103 [label="entropy = 0.918\nsamples = 2\nvalue = [0, 0, 0, 0, 1, 0, 2]\nclass = SIRA", fillcolor="#f29cc2"] ;
101 -> 103 ;
104 [label="convexarea <= 34024.5\nentropy = 0.071\nsamples = 69\nvalue = [0, 0, 0, 0, 117, 0, 1]\nclass = DERMASON", fillcolor="#3b57e5"] ;
100 -> 104 ;
105 [label="entropy = 1.0\nsamples = 2\nvalue = [0, 0, 0, 0, 1, 0, 1]\nclass = DERMASON", fillcolor="#ffffff"] ;
104 -> 105 ;
106 [label="entropy = 0.0\nsamples = 67\nvalue = [0, 0, 0, 0, 116, 0, 0]\nclass = DERMASON", fillcolor="#3956e5"] ;
104 -> 106 ;
107 [label="shapefactor1 <= 0.007\nentropy = 1.031\nsamples = 29\nvalue = [5, 0, 0, 0, 35, 0, 6]\nclass = DERMASON", fillcolor="#6f84ec"] ;
83 -> 107 ;
108 [label="roundness <= 0.933\nentropy = 0.625\nsamples = 21\nvalue = [5, 0, 0, 0, 27, 0, 0]\nclass = DERMASON", fillcolor="#5e75ea"] ;
107 -> 108 ;
109 [label="entropy = 0.0\nsamples = 13\nvalue = [0, 0, 0, 0, 18, 0, 0]\nclass = DERMASON", fillcolor="#3956e5"] ;
108 -> 109 ;
110 [label="shapefactor2 <= 0.002\nentropy = 0.94\nsamples = 8\nvalue = [5, 0, 0, 0, 9, 0, 0]\nclass = DERMASON", fillcolor="#a7b4f3"] ;
108 -> 110 ;
111 [label="aspectration <= 1.373\nentropy = 0.811\nsamples = 7\nvalue = [3, 0, 0, 0, 9, 0, 0]\nclass = DERMASON", fillcolor="#7b8eee"] ;
110 -> 111 ;
112 [label="entropy = 0.0\nsamples = 2\nvalue = [0, 0, 0, 0, 6, 0, 0]\nclass = DERMASON", fillcolor="#3956e5"] ;
111 -> 112 ;
113 [label="compactness <= 0.843\nentropy = 1.0\nsamples = 5\nvalue = [3, 0, 0, 0, 3, 0, 0]\nclass = SEKER", fillcolor="#ffffff"] ;
111 -> 113 ;
114 [label="entropy = 0.0\nsamples = 2\nvalue = [0, 0, 0, 0, 3, 0, 0]\nclass = DERMASON", fillcolor="#3956e5"] ;
113 -> 114 ;
115 [label="entropy = 0.0\nsamples = 3\nvalue = [3, 0, 0, 0, 0, 0, 0]\nclass = SEKER", fillcolor="#e58139"] ;
113 -> 115 ;
116 [label="entropy = 0.0\nsamples = 1\nvalue = [2, 0, 0, 0, 0, 0, 0]\nclass = SEKER", fillcolor="#e58139"] ;
110 -> 116 ;
117 [label="perimeter <= 683.001\nentropy = 0.985\nsamples = 8\nvalue = [0, 0, 0, 0, 8, 0, 6]\nclass = DERMASON", fillcolor="#ced5f8"] ;
107 -> 117 ;
118 [label="shapefactor1 <= 0.007\nentropy = 0.845\nsamples = 6\nvalue = [0, 0, 0, 0, 8, 0, 3]\nclass = DERMASON", fillcolor="#8395ef"] ;
117 -> 118 ;
119 [label="entropy = 0.0\nsamples = 1\nvalue = [0, 0, 0, 0, 0, 0, 3]\nclass = SIRA", fillcolor="#e53986"] ;
118 -> 119 ;
120 [label="entropy = 0.0\nsamples = 5\nvalue = [0, 0, 0, 0, 8, 0, 0]\nclass = DERMASON", fillcolor="#3956e5"] ;
118 -> 120 ;
121 [label="entropy = 0.0\nsamples = 2\nvalue = [0, 0, 0, 0, 0, 0, 3]\nclass = SIRA", fillcolor="#e53986"] ;
117 -> 121 ;
122 [label="shapefactor3 <= 0.573\nentropy = 1.241\nsamples = 265\nvalue = [6.0, 0.0, 0.0, 0.0, 254.0, 19.0, 124.0]\nclass = DERMASON", fillcolor="#a3b0f3"] ;
72 -> 122 ;
123 [label="shapefactor3 <= 0.544\nentropy = 1.189\nsamples = 20\nvalue = [0, 0, 0, 0, 6, 16, 2]\nclass = HOROZ", fillcolor="#d491f1"] ;
122 -> 123 ;
124 [label="entropy = 0.0\nsamples = 10\nvalue = [0, 0, 0, 0, 0, 12, 0]\nclass = HOROZ", fillcolor="#b139e5"] ;
123 -> 124 ;
125 [label="shapefactor2 <= 0.002\nentropy = 1.459\nsamples = 10\nvalue = [0, 0, 0, 0, 6, 4, 2]\nclass = DERMASON", fillcolor="#ced5f8"] ;
123 -> 125 ;
126 [label="solidity <= 0.988\nentropy = 1.224\nsamples = 8\nvalue = [0, 0, 0, 0, 6, 1, 2]\nclass = DERMASON", fillcolor="#8e9ef0"] ;
125 -> 126 ;
127 [label="extent <= 0.78\nentropy = 1.5\nsamples = 4\nvalue = [0, 0, 0, 0, 1, 1, 2]\nclass = SIRA", fillcolor="#f6bdd7"] ;
126 -> 127 ;
128 [label="entropy = 0.0\nsamples = 2\nvalue = [0, 0, 0, 0, 0, 0, 2]\nclass = SIRA", fillcolor="#e53986"] ;
127 -> 128 ;
129 [label="entropy = 1.0\nsamples = 2\nvalue = [0, 0, 0, 0, 1, 1, 0]\nclass = DERMASON", fillcolor="#ffffff"] ;
127 -> 129 ;
130 [label="entropy = 0.0\nsamples = 4\nvalue = [0, 0, 0, 0, 5, 0, 0]\nclass = DERMASON", fillcolor="#3956e5"] ;
126 -> 130 ;
131 [label="entropy = 0.0\nsamples = 2\nvalue = [0, 0, 0, 0, 0, 3, 0]\nclass = HOROZ", fillcolor="#b139e5"] ;
125 -> 131 ;
132 [label="minoraxislength <= 186.588\nentropy = 1.077\nsamples = 245\nvalue = [6, 0, 0, 0, 248, 3, 122]\nclass = DERMASON", fillcolor="#9eacf2"] ;
122 -> 132 ;
133 [label="eccentricity <= 0.707\nentropy = 1.011\nsamples = 234\nvalue = [2, 0, 0, 0, 243, 3, 115]\nclass = DERMASON", fillcolor="#99a8f2"] ;
132 -> 133 ;
134 [label="entropy = 0.0\nsamples = 8\nvalue = [0, 0, 0, 0, 16, 0, 0]\nclass = DERMASON", fillcolor="#3956e5"] ;
133 -> 134 ;
135 [label="perimeter <= 712.728\nentropy = 1.031\nsamples = 226\nvalue = [2.0, 0.0, 0.0, 0.0, 227.0, 3.0, 115.0]\nclass = DERMASON", fillcolor="#9fadf2"] ;
133 -> 135 ;
136 [label="solidity <= 0.988\nentropy = 0.71\nsamples = 44\nvalue = [0, 0, 0, 0, 57, 1, 10]\nclass = DERMASON", fillcolor="#5f76ea"] ;
135 -> 136 ;
137 [label="aspectration <= 1.565\nentropy = 1.253\nsamples = 12\nvalue = [0, 0, 0, 0, 9, 1, 7]\nclass = DERMASON", fillcolor="#d7ddfa"] ;
136 -> 137 ;
138 [label="equivdiameter <= 215.412\nentropy = 0.881\nsamples = 7\nvalue = [0, 0, 0, 0, 3, 0, 7]\nclass = SIRA", fillcolor="#f08eba"] ;
137 -> 138 ;
139 [label="majoraxislength <= 261.768\nentropy = 0.544\nsamples = 6\nvalue = [0, 0, 0, 0, 1, 0, 7]\nclass = SIRA", fillcolor="#e95597"] ;
138 -> 139 ;
140 [label="entropy = 0.0\nsamples = 3\nvalue = [0, 0, 0, 0, 0, 0, 5]\nclass = SIRA", fillcolor="#e53986"] ;
139 -> 140 ;
141 [label="minoraxislength <= 174.423\nentropy = 0.918\nsamples = 3\nvalue = [0, 0, 0, 0, 1, 0, 2]\nclass = SIRA", fillcolor="#f29cc2"] ;
139 -> 141 ;
142 [label="entropy = 0.0\nsamples = 2\nvalue = [0, 0, 0, 0, 0, 0, 2]\nclass = SIRA", fillcolor="#e53986"] ;
141 -> 142 ;
143 [label="entropy = 0.0\nsamples = 1\nvalue = [0, 0, 0, 0, 1, 0, 0]\nclass = DERMASON", fillcolor="#3956e5"] ;
141 -> 143 ;
144 [label="entropy = 0.0\nsamples = 1\nvalue = [0, 0, 0, 0, 2, 0, 0]\nclass = DERMASON", fillcolor="#3956e5"] ;
138 -> 144 ;
145 [label="solidity <= 0.987\nentropy = 0.592\nsamples = 5\nvalue = [0, 0, 0, 0, 6, 1, 0]\nclass = DERMASON", fillcolor="#5a72e9"] ;
137 -> 145 ;
146 [label="entropy = 0.0\nsamples = 4\nvalue = [0, 0, 0, 0, 6, 0, 0]\nclass = DERMASON", fillcolor="#3956e5"] ;
145 -> 146 ;
147 [label="entropy = 0.0\nsamples = 1\nvalue = [0, 0, 0, 0, 0, 1, 0]\nclass = HOROZ", fillcolor="#b139e5"] ;
145 -> 147 ;
148 [label="shapefactor4 <= 0.998\nentropy = 0.323\nsamples = 32\nvalue = [0, 0, 0, 0, 48, 0, 3]\nclass = DERMASON", fillcolor="#4561e7"] ;
136 -> 148 ;
149 [label="entropy = 0.0\nsamples = 24\nvalue = [0, 0, 0, 0, 38, 0, 0]\nclass = DERMASON", fillcolor="#3956e5"] ;
148 -> 149 ;
150 [label="shapefactor3 <= 0.664\nentropy = 0.779\nsamples = 8\nvalue = [0, 0, 0, 0, 10, 0, 3]\nclass = DERMASON", fillcolor="#7489ed"] ;
148 -> 150 ;
151 [label="entropy = 0.0\nsamples = 3\nvalue = [0, 0, 0, 0, 7, 0, 0]\nclass = DERMASON", fillcolor="#3956e5"] ;
150 -> 151 ;
152 [label="minoraxislength <= 177.648\nentropy = 1.0\nsamples = 5\nvalue = [0, 0, 0, 0, 3, 0, 3]\nclass = DERMASON", fillcolor="#ffffff"] ;
150 -> 152 ;
153 [label="entropy = 0.0\nsamples = 1\nvalue = [0, 0, 0, 0, 0, 0, 2]\nclass = SIRA", fillcolor="#e53986"] ;
152 -> 153 ;
154 [label="shapefactor1 <= 0.007\nentropy = 0.811\nsamples = 4\nvalue = [0, 0, 0, 0, 3, 0, 1]\nclass = DERMASON", fillcolor="#7b8eee"] ;
152 -> 154 ;
155 [label="entropy = 0.0\nsamples = 1\nvalue = [0, 0, 0, 0, 0, 0, 1]\nclass = SIRA", fillcolor="#e53986"] ;
154 -> 155 ;
156 [label="entropy = 0.0\nsamples = 3\nvalue = [0, 0, 0, 0, 3, 0, 0]\nclass = DERMASON", fillcolor="#3956e5"] ;
154 -> 156 ;
157 [label="roundness <= 0.891\nentropy = 1.068\nsamples = 182\nvalue = [2, 0, 0, 0, 170, 2, 105]\nclass = DERMASON", fillcolor="#b5c0f5"] ;
135 -> 157 ;
158 [label="extent <= 0.788\nentropy = 1.105\nsamples = 78\nvalue = [0.0, 0.0, 0.0, 0.0, 55.0, 2.0, 61.0]\nclass = SIRA", fillcolor="#fdecf3"] ;
157 -> 158 ;
159 [label="compactness <= 0.786\nentropy = 0.997\nsamples = 69\nvalue = [0, 0, 0, 0, 54, 0, 47]\nclass = DERMASON", fillcolor="#e5e9fc"] ;
158 -> 159 ;
160 [label="aspectration <= 1.646\nentropy = 0.544\nsamples = 24\nvalue = [0, 0, 0, 0, 28, 0, 4]\nclass = DERMASON", fillcolor="#556ee9"] ;
159 -> 160 ;
161 [label="entropy = 0.0\nsamples = 10\nvalue = [0, 0, 0, 0, 13, 0, 0]\nclass = DERMASON", fillcolor="#3956e5"] ;
160 -> 161 ;
162 [label="compactness <= 0.77\nentropy = 0.742\nsamples = 14\nvalue = [0, 0, 0, 0, 15, 0, 4]\nclass = DERMASON", fillcolor="#6e83ec"] ;
160 -> 162 ;
163 [label="entropy = 0.0\nsamples = 6\nvalue = [0, 0, 0, 0, 10, 0, 0]\nclass = DERMASON", fillcolor="#3956e5"] ;
162 -> 163 ;
164 [label="area <= 38883.5\nentropy = 0.991\nsamples = 8\nvalue = [0, 0, 0, 0, 5, 0, 4]\nclass = DERMASON", fillcolor="#d7ddfa"] ;
162 -> 164 ;
165 [label="compactness <= 0.773\nentropy = 0.985\nsamples = 7\nvalue = [0, 0, 0, 0, 3, 0, 4]\nclass = SIRA", fillcolor="#f8cee1"] ;
164 -> 165 ;
166 [label="entropy = 0.0\nsamples = 2\nvalue = [0, 0, 0, 0, 0, 0, 2]\nclass = SIRA", fillcolor="#e53986"] ;
165 -> 166 ;
167 [label="solidity <= 0.987\nentropy = 0.971\nsamples = 5\nvalue = [0, 0, 0, 0, 3, 0, 2]\nclass = DERMASON", fillcolor="#bdc7f6"] ;
165 -> 167 ;
168 [label="entropy = 0.0\nsamples = 3\nvalue = [0, 0, 0, 0, 3, 0, 0]\nclass = DERMASON", fillcolor="#3956e5"] ;
167 -> 168 ;
169 [label="entropy = 0.0\nsamples = 2\nvalue = [0, 0, 0, 0, 0, 0, 2]\nclass = SIRA", fillcolor="#e53986"] ;
167 -> 169 ;
170 [label="entropy = 0.0\nsamples = 1\nvalue = [0, 0, 0, 0, 2, 0, 0]\nclass = DERMASON", fillcolor="#3956e5"] ;
164 -> 170 ;
171 [label="shapefactor3 <= 0.637\nentropy = 0.956\nsamples = 45\nvalue = [0, 0, 0, 0, 26, 0, 43]\nclass = SIRA", fillcolor="#f5b1cf"] ;
159 -> 171 ;
172 [label="extent <= 0.729\nentropy = 0.242\nsamples = 13\nvalue = [0, 0, 0, 0, 1, 0, 24]\nclass = SIRA", fillcolor="#e6418b"] ;
171 -> 172 ;
173 [label="entropy = 0.0\nsamples = 8\nvalue = [0, 0, 0, 0, 0, 0, 19]\nclass = SIRA", fillcolor="#e53986"] ;
172 -> 173 ;
174 [label="extent <= 0.731\nentropy = 0.65\nsamples = 5\nvalue = [0, 0, 0, 0, 1, 0, 5]\nclass = SIRA", fillcolor="#ea619e"] ;
172 -> 174 ;
175 [label="entropy = 0.0\nsamples = 1\nvalue = [0, 0, 0, 0, 1, 0, 0]\nclass = DERMASON", fillcolor="#3956e5"] ;
174 -> 175 ;
176 [label="entropy = 0.0\nsamples = 4\nvalue = [0, 0, 0, 0, 0, 0, 5]\nclass = SIRA", fillcolor="#e53986"] ;
174 -> 176 ;
177 [label="perimeter <= 749.743\nentropy = 0.987\nsamples = 32\nvalue = [0.0, 0.0, 0.0, 0.0, 25.0, 0.0, 19.0]\nclass = DERMASON", fillcolor="#cfd6f9"] ;
171 -> 177 ;
178 [label="eccentricity <= 0.766\nentropy = 0.995\nsamples = 26\nvalue = [0, 0, 0, 0, 16, 0, 19]\nclass = SIRA", fillcolor="#fbe0ec"] ;
177 -> 178 ;
179 [label="shapefactor2 <= 0.002\nentropy = 0.929\nsamples = 22\nvalue = [0, 0, 0, 0, 10, 0, 19]\nclass = SIRA", fillcolor="#f3a1c6"] ;
178 -> 179 ;
180 [label="entropy = 0.0\nsamples = 6\nvalue = [0, 0, 0, 0, 0, 0, 9]\nclass = SIRA", fillcolor="#e53986"] ;
179 -> 180 ;
181 [label="aspectration <= 1.506\nentropy = 1.0\nsamples = 16\nvalue = [0, 0, 0, 0, 10, 0, 10]\nclass = DERMASON", fillcolor="#ffffff"] ;
179 -> 181 ;
182 [label="perimeter <= 738.821\nentropy = 0.918\nsamples = 12\nvalue = [0, 0, 0, 0, 5, 0, 10]\nclass = SIRA", fillcolor="#f29cc2"] ;
181 -> 182 ;
183 [label="perimeter <= 733.543\nentropy = 1.0\nsamples = 8\nvalue = [0, 0, 0, 0, 5, 0, 5]\nclass = DERMASON", fillcolor="#ffffff"] ;
182 -> 183 ;
184 [label="minoraxislength <= 175.384\nentropy = 0.863\nsamples = 5\nvalue = [0, 0, 0, 0, 2, 0, 5]\nclass = SIRA", fillcolor="#ef88b6"] ;
183 -> 184 ;
185 [label="entropy = 0.0\nsamples = 1\nvalue = [0, 0, 0, 0, 1, 0, 0]\nclass = DERMASON", fillcolor="#3956e5"] ;
184 -> 185 ;
186 [label="shapefactor3 <= 0.667\nentropy = 0.65\nsamples = 4\nvalue = [0, 0, 0, 0, 1, 0, 5]\nclass = SIRA", fillcolor="#ea619e"] ;
184 -> 186 ;
187 [label="entropy = 0.918\nsamples = 2\nvalue = [0, 0, 0, 0, 1, 0, 2]\nclass = SIRA", fillcolor="#f29cc2"] ;
186 -> 187 ;
188 [label="entropy = 0.0\nsamples = 2\nvalue = [0, 0, 0, 0, 0, 0, 3]\nclass = SIRA", fillcolor="#e53986"] ;
186 -> 188 ;
189 [label="entropy = 0.0\nsamples = 3\nvalue = [0, 0, 0, 0, 3, 0, 0]\nclass = DERMASON", fillcolor="#3956e5"] ;
183 -> 189 ;
190 [label="entropy = 0.0\nsamples = 4\nvalue = [0, 0, 0, 0, 0, 0, 5]\nclass = SIRA", fillcolor="#e53986"] ;
182 -> 190 ;
191 [label="entropy = 0.0\nsamples = 4\nvalue = [0, 0, 0, 0, 5, 0, 0]\nclass = DERMASON", fillcolor="#3956e5"] ;
181 -> 191 ;
192 [label="entropy = 0.0\nsamples = 4\nvalue = [0, 0, 0, 0, 6, 0, 0]\nclass = DERMASON", fillcolor="#3956e5"] ;
178 -> 192 ;
193 [label="entropy = 0.0\nsamples = 6\nvalue = [0, 0, 0, 0, 9, 0, 0]\nclass = DERMASON", fillcolor="#3956e5"] ;
177 -> 193 ;
194 [label="convexarea <= 37456.0\nentropy = 0.834\nsamples = 9\nvalue = [0, 0, 0, 0, 1, 2, 14]\nclass = SIRA", fillcolor="#ea619e"] ;
158 -> 194 ;
195 [label="equivdiameter <= 214.602\nentropy = 1.299\nsamples = 4\nvalue = [0, 0, 0, 0, 1, 2, 5]\nclass = SIRA", fillcolor="#f29cc2"] ;
194 -> 195 ;
196 [label="entropy = 0.0\nsamples = 2\nvalue = [0, 0, 0, 0, 0, 0, 5]\nclass = SIRA", fillcolor="#e53986"] ;
195 -> 196 ;
197 [label="entropy = 0.918\nsamples = 2\nvalue = [0, 0, 0, 0, 1, 2, 0]\nclass = HOROZ", fillcolor="#d89cf2"] ;
195 -> 197 ;
198 [label="entropy = 0.0\nsamples = 5\nvalue = [0, 0, 0, 0, 0, 0, 9]\nclass = SIRA", fillcolor="#e53986"] ;
194 -> 198 ;
199 [label="aspectration <= 1.51\nentropy = 0.937\nsamples = 104\nvalue = [2.0, 0.0, 0.0, 0.0, 115.0, 0.0, 44.0]\nclass = DERMASON", fillcolor="#8798ef"] ;
157 -> 199 ;
200 [label="shapefactor4 <= 0.999\nentropy = 1.108\nsamples = 58\nvalue = [2.0, 0.0, 0.0, 0.0, 52.0, 0.0, 36.0]\nclass = DERMASON", fillcolor="#c4cdf7"] ;
199 -> 200 ;
201 [label="shapefactor1 <= 0.007\nentropy = 0.976\nsamples = 57\nvalue = [0, 0, 0, 0, 52, 0, 36]\nclass = DERMASON", fillcolor="#c2cbf7"] ;
200 -> 201 ;
202 [label="aspectration <= 1.446\nentropy = 0.953\nsamples = 55\nvalue = [0, 0, 0, 0, 52, 0, 31]\nclass = DERMASON", fillcolor="#afbbf4"] ;
201 -> 202 ;
203 [label="area <= 37308.0\nentropy = 0.961\nsamples = 19\nvalue = [0, 0, 0, 0, 10, 0, 16]\nclass = SIRA", fillcolor="#f5b5d2"] ;
202 -> 203 ;
204 [label="entropy = 0.0\nsamples = 2\nvalue = [0, 0, 0, 0, 0, 0, 4]\nclass = SIRA", fillcolor="#e53986"] ;
203 -> 204 ;
205 [label="shapefactor4 <= 0.996\nentropy = 0.994\nsamples = 17\nvalue = [0, 0, 0, 0, 10, 0, 12]\nclass = SIRA", fillcolor="#fbdeeb"] ;
203 -> 205 ;
206 [label="entropy = 0.0\nsamples = 4\nvalue = [0, 0, 0, 0, 0, 0, 5]\nclass = SIRA", fillcolor="#e53986"] ;
205 -> 206 ;
207 [label="majoraxislength <= 264.182\nentropy = 0.977\nsamples = 13\nvalue = [0, 0, 0, 0, 10, 0, 7]\nclass = DERMASON", fillcolor="#c4ccf7"] ;
205 -> 207 ;
208 [label="entropy = 0.0\nsamples = 6\nvalue = [0, 0, 0, 0, 7, 0, 0]\nclass = DERMASON", fillcolor="#3956e5"] ;
207 -> 208 ;
209 [label="area <= 38831.0\nentropy = 0.881\nsamples = 7\nvalue = [0, 0, 0, 0, 3, 0, 7]\nclass = SIRA", fillcolor="#f08eba"] ;
207 -> 209 ;
210 [label="roundness <= 0.926\nentropy = 0.544\nsamples = 5\nvalue = [0, 0, 0, 0, 1, 0, 7]\nclass = SIRA", fillcolor="#e95597"] ;
209 -> 210 ;
211 [label="compactness <= 0.832\nentropy = 0.918\nsamples = 3\nvalue = [0, 0, 0, 0, 1, 0, 2]\nclass = SIRA", fillcolor="#f29cc2"] ;
210 -> 211 ;
212 [label="entropy = 0.0\nsamples = 1\nvalue = [0, 0, 0, 0, 1, 0, 0]\nclass = DERMASON", fillcolor="#3956e5"] ;
211 -> 212 ;
213 [label="entropy = 0.0\nsamples = 2\nvalue = [0, 0, 0, 0, 0, 0, 2]\nclass = SIRA", fillcolor="#e53986"] ;
211 -> 213 ;
214 [label="entropy = 0.0\nsamples = 2\nvalue = [0, 0, 0, 0, 0, 0, 5]\nclass = SIRA", fillcolor="#e53986"] ;
210 -> 214 ;
215 [label="entropy = 0.0\nsamples = 2\nvalue = [0, 0, 0, 0, 2, 0, 0]\nclass = DERMASON", fillcolor="#3956e5"] ;
209 -> 215 ;
216 [label="compactness <= 0.826\nentropy = 0.831\nsamples = 36\nvalue = [0, 0, 0, 0, 42, 0, 15]\nclass = DERMASON", fillcolor="#8092ee"] ;
202 -> 216 ;
217 [label="shapefactor4 <= 0.998\nentropy = 0.967\nsamples = 27\nvalue = [0, 0, 0, 0, 20, 0, 13]\nclass = DERMASON", fillcolor="#bac4f6"] ;
216 -> 217 ;
218 [label="convexarea <= 39172.0\nentropy = 0.742\nsamples = 17\nvalue = [0, 0, 0, 0, 15, 0, 4]\nclass = DERMASON", fillcolor="#6e83ec"] ;
217 -> 218 ;
219 [label="equivdiameter <= 221.434\nentropy = 0.89\nsamples = 13\nvalue = [0, 0, 0, 0, 9, 0, 4]\nclass = DERMASON", fillcolor="#91a1f1"] ;
218 -> 219 ;
220 [label="shapefactor2 <= 0.002\nentropy = 0.684\nsamples = 11\nvalue = [0, 0, 0, 0, 9, 0, 2]\nclass = DERMASON", fillcolor="#657ceb"] ;
219 -> 220 ;
221 [label="entropy = 0.0\nsamples = 8\nvalue = [0, 0, 0, 0, 8, 0, 0]\nclass = DERMASON", fillcolor="#3956e5"] ;
220 -> 221 ;
222 [label="shapefactor1 <= 0.007\nentropy = 0.918\nsamples = 3\nvalue = [0, 0, 0, 0, 1, 0, 2]\nclass = SIRA", fillcolor="#f29cc2"] ;
220 -> 222 ;
223 [label="entropy = 0.0\nsamples = 1\nvalue = [0, 0, 0, 0, 1, 0, 0]\nclass = DERMASON", fillcolor="#3956e5"] ;
222 -> 223 ;
224 [label="entropy = 0.0\nsamples = 2\nvalue = [0, 0, 0, 0, 0, 0, 2]\nclass = SIRA", fillcolor="#e53986"] ;
222 -> 224 ;
225 [label="entropy = 0.0\nsamples = 2\nvalue = [0, 0, 0, 0, 0, 0, 2]\nclass = SIRA", fillcolor="#e53986"] ;
219 -> 225 ;
226 [label="entropy = 0.0\nsamples = 4\nvalue = [0, 0, 0, 0, 6, 0, 0]\nclass = DERMASON", fillcolor="#3956e5"] ;
218 -> 226 ;
227 [label="shapefactor3 <= 0.667\nentropy = 0.94\nsamples = 10\nvalue = [0, 0, 0, 0, 5, 0, 9]\nclass = SIRA", fillcolor="#f3a7c9"] ;
217 -> 227 ;
228 [label="entropy = 0.0\nsamples = 1\nvalue = [0, 0, 0, 0, 2, 0, 0]\nclass = DERMASON", fillcolor="#3956e5"] ;
227 -> 228 ;
229 [label="solidity <= 0.99\nentropy = 0.811\nsamples = 9\nvalue = [0, 0, 0, 0, 3, 0, 9]\nclass = SIRA", fillcolor="#ee7bae"] ;
227 -> 229 ;
230 [label="eccentricity <= 0.738\nentropy = 0.811\nsamples = 3\nvalue = [0, 0, 0, 0, 3, 0, 1]\nclass = DERMASON", fillcolor="#7b8eee"] ;
229 -> 230 ;
231 [label="entropy = 0.0\nsamples = 2\nvalue = [0, 0, 0, 0, 3, 0, 0]\nclass = DERMASON", fillcolor="#3956e5"] ;
230 -> 231 ;
232 [label="entropy = 0.0\nsamples = 1\nvalue = [0, 0, 0, 0, 0, 0, 1]\nclass = SIRA", fillcolor="#e53986"] ;
230 -> 232 ;
233 [label="entropy = 0.0\nsamples = 6\nvalue = [0, 0, 0, 0, 0, 0, 8]\nclass = SIRA", fillcolor="#e53986"] ;
229 -> 233 ;
234 [label="shapefactor2 <= 0.002\nentropy = 0.414\nsamples = 9\nvalue = [0, 0, 0, 0, 22, 0, 2]\nclass = DERMASON", fillcolor="#4b65e7"] ;
216 -> 234 ;
235 [label="roundness <= 0.906\nentropy = 1.0\nsamples = 3\nvalue = [0, 0, 0, 0, 2, 0, 2]\nclass = DERMASON", fillcolor="#ffffff"] ;
234 -> 235 ;
236 [label="entropy = 0.0\nsamples = 1\nvalue = [0, 0, 0, 0, 0, 0, 2]\nclass = SIRA", fillcolor="#e53986"] ;
235 -> 236 ;
237 [label="entropy = 0.0\nsamples = 2\nvalue = [0, 0, 0, 0, 2, 0, 0]\nclass = DERMASON", fillcolor="#3956e5"] ;
235 -> 237 ;
238 [label="entropy = 0.0\nsamples = 6\nvalue = [0, 0, 0, 0, 20, 0, 0]\nclass = DERMASON", fillcolor="#3956e5"] ;
234 -> 238 ;
239 [label="entropy = 0.0\nsamples = 2\nvalue = [0, 0, 0, 0, 0, 0, 5]\nclass = SIRA", fillcolor="#e53986"] ;
201 -> 239 ;
240 [label="entropy = 0.0\nsamples = 1\nvalue = [2, 0, 0, 0, 0, 0, 0]\nclass = SEKER", fillcolor="#e58139"] ;
200 -> 240 ;
241 [label="extent <= 0.802\nentropy = 0.508\nsamples = 46\nvalue = [0, 0, 0, 0, 63, 0, 8]\nclass = DERMASON", fillcolor="#526be8"] ;
199 -> 241 ;
242 [label="convexarea <= 38286.5\nentropy = 0.334\nsamples = 43\nvalue = [0, 0, 0, 0, 61, 0, 4]\nclass = DERMASON", fillcolor="#4661e7"] ;
241 -> 242 ;
243 [label="solidity <= 0.989\nentropy = 0.533\nsamples = 21\nvalue = [0, 0, 0, 0, 29, 0, 4]\nclass = DERMASON", fillcolor="#546de9"] ;
242 -> 243 ;
244 [label="entropy = 0.0\nsamples = 9\nvalue = [0, 0, 0, 0, 15, 0, 0]\nclass = DERMASON", fillcolor="#3956e5"] ;
243 -> 244 ;
245 [label="shapefactor1 <= 0.007\nentropy = 0.764\nsamples = 12\nvalue = [0, 0, 0, 0, 14, 0, 4]\nclass = DERMASON", fillcolor="#7286ec"] ;
243 -> 245 ;
246 [label="extent <= 0.74\nentropy = 0.811\nsamples = 4\nvalue = [0, 0, 0, 0, 1, 0, 3]\nclass = SIRA", fillcolor="#ee7bae"] ;
245 -> 246 ;
247 [label="entropy = 0.0\nsamples = 1\nvalue = [0, 0, 0, 0, 1, 0, 0]\nclass = DERMASON", fillcolor="#3956e5"] ;
246 -> 247 ;
248 [label="entropy = 0.0\nsamples = 3\nvalue = [0, 0, 0, 0, 0, 0, 3]\nclass = SIRA", fillcolor="#e53986"] ;
246 -> 248 ;
249 [label="solidity <= 0.99\nentropy = 0.371\nsamples = 8\nvalue = [0, 0, 0, 0, 13, 0, 1]\nclass = DERMASON", fillcolor="#4863e7"] ;
245 -> 249 ;
250 [label="entropy = 0.0\nsamples = 4\nvalue = [0, 0, 0, 0, 8, 0, 0]\nclass = DERMASON", fillcolor="#3956e5"] ;
249 -> 250 ;
251 [label="solidity <= 0.991\nentropy = 0.65\nsamples = 4\nvalue = [0, 0, 0, 0, 5, 0, 1]\nclass = DERMASON", fillcolor="#6178ea"] ;
249 -> 251 ;
252 [label="entropy = 0.0\nsamples = 1\nvalue = [0, 0, 0, 0, 0, 0, 1]\nclass = SIRA", fillcolor="#e53986"] ;
251 -> 252 ;
253 [label="entropy = 0.0\nsamples = 3\nvalue = [0, 0, 0, 0, 5, 0, 0]\nclass = DERMASON", fillcolor="#3956e5"] ;
251 -> 253 ;
254 [label="entropy = 0.0\nsamples = 22\nvalue = [0, 0, 0, 0, 32, 0, 0]\nclass = DERMASON", fillcolor="#3956e5"] ;
242 -> 254 ;
255 [label="perimeter <= 721.915\nentropy = 0.918\nsamples = 3\nvalue = [0, 0, 0, 0, 2, 0, 4]\nclass = SIRA", fillcolor="#f29cc2"] ;
241 -> 255 ;
256 [label="entropy = 0.0\nsamples = 2\nvalue = [0, 0, 0, 0, 0, 0, 4]\nclass = SIRA", fillcolor="#e53986"] ;
255 -> 256 ;
257 [label="entropy = 0.0\nsamples = 1\nvalue = [0, 0, 0, 0, 2, 0, 0]\nclass = DERMASON", fillcolor="#3956e5"] ;
255 -> 257 ;
258 [label="area <= 38799.0\nentropy = 1.546\nsamples = 11\nvalue = [4, 0, 0, 0, 5, 0, 7]\nclass = SIRA", fillcolor="#fadbe9"] ;
132 -> 258 ;
259 [label="area <= 38002.5\nentropy = 1.309\nsamples = 7\nvalue = [2, 0, 0, 0, 2, 0, 7]\nclass = SIRA", fillcolor="#f191bc"] ;
258 -> 259 ;
260 [label="entropy = 0.918\nsamples = 2\nvalue = [2, 0, 0, 0, 1, 0, 0]\nclass = SEKER", fillcolor="#f2c09c"] ;
259 -> 260 ;
261 [label="shapefactor1 <= 0.007\nentropy = 0.544\nsamples = 5\nvalue = [0, 0, 0, 0, 1, 0, 7]\nclass = SIRA", fillcolor="#e95597"] ;
259 -> 261 ;
262 [label="entropy = 0.0\nsamples = 1\nvalue = [0, 0, 0, 0, 1, 0, 0]\nclass = DERMASON", fillcolor="#3956e5"] ;
261 -> 262 ;
263 [label="entropy = 0.0\nsamples = 4\nvalue = [0, 0, 0, 0, 0, 0, 7]\nclass = SIRA", fillcolor="#e53986"] ;
261 -> 263 ;
264 [label="minoraxislength <= 189.34\nentropy = 0.971\nsamples = 4\nvalue = [2, 0, 0, 0, 3, 0, 0]\nclass = DERMASON", fillcolor="#bdc7f6"] ;
258 -> 264 ;
265 [label="entropy = 0.0\nsamples = 3\nvalue = [0, 0, 0, 0, 3, 0, 0]\nclass = DERMASON", fillcolor="#3956e5"] ;
264 -> 265 ;
266 [label="entropy = 0.0\nsamples = 1\nvalue = [2, 0, 0, 0, 0, 0, 0]\nclass = SEKER", fillcolor="#e58139"] ;
264 -> 266 ;
267 [label="aspectration <= 1.844\nentropy = 1.256\nsamples = 898\nvalue = [57, 22, 0, 0, 115, 164, 1046]\nclass = SIRA", fillcolor="#ed72a9"] ;
71 -> 267 ;
268 [label="perimeter <= 773.161\nentropy = 0.941\nsamples = 812\nvalue = [57, 22, 0, 0, 115, 21, 1046]\nclass = SIRA", fillcolor="#ea5e9d"] ;
267 -> 268 ;
269 [label="roundness <= 0.932\nentropy = 1.394\nsamples = 243\nvalue = [27, 1, 0, 0, 114, 8, 216]\nclass = SIRA", fillcolor="#f4afce"] ;
268 -> 269 ;
270 [label="shapefactor4 <= 0.994\nentropy = 1.191\nsamples = 221\nvalue = [6.0, 1.0, 0.0, 0.0, 105.0, 8.0, 216.0]\nclass = SIRA", fillcolor="#f3a0c5"] ;
269 -> 270 ;
271 [label="shapefactor1 <= 0.007\nentropy = 0.935\nsamples = 32\nvalue = [0, 0, 0, 0, 3, 8, 40]\nclass = SIRA", fillcolor="#ec6ca5"] ;
270 -> 271 ;
272 [label="shapefactor3 <= 0.623\nentropy = 0.406\nsamples = 24\nvalue = [0, 0, 0, 0, 3, 0, 34]\nclass = SIRA", fillcolor="#e74a91"] ;
271 -> 272 ;
273 [label="entropy = 0.0\nsamples = 1\nvalue = [0, 0, 0, 0, 1, 0, 0]\nclass = DERMASON", fillcolor="#3956e5"] ;
272 -> 273 ;
274 [label="majoraxislength <= 269.165\nentropy = 0.31\nsamples = 23\nvalue = [0, 0, 0, 0, 2, 0, 34]\nclass = SIRA", fillcolor="#e7458d"] ;
272 -> 274 ;
275 [label="entropy = 0.0\nsamples = 1\nvalue = [0, 0, 0, 0, 1, 0, 0]\nclass = DERMASON", fillcolor="#3956e5"] ;
274 -> 275 ;
276 [label="roundness <= 0.917\nentropy = 0.187\nsamples = 22\nvalue = [0, 0, 0, 0, 1, 0, 34]\nclass = SIRA", fillcolor="#e63f8a"] ;
274 -> 276 ;
277 [label="entropy = 0.0\nsamples = 21\nvalue = [0, 0, 0, 0, 0, 0, 34]\nclass = SIRA", fillcolor="#e53986"] ;
276 -> 277 ;
278 [label="entropy = 0.0\nsamples = 1\nvalue = [0, 0, 0, 0, 1, 0, 0]\nclass = DERMASON", fillcolor="#3956e5"] ;
276 -> 278 ;
279 [label="compactness <= 0.761\nentropy = 0.985\nsamples = 8\nvalue = [0, 0, 0, 0, 0, 8, 6]\nclass = HOROZ", fillcolor="#eccef8"] ;
271 -> 279 ;
280 [label="entropy = 0.0\nsamples = 2\nvalue = [0, 0, 0, 0, 0, 5, 0]\nclass = HOROZ", fillcolor="#b139e5"] ;
279 -> 280 ;
281 [label="aspectration <= 1.656\nentropy = 0.918\nsamples = 6\nvalue = [0, 0, 0, 0, 0, 3, 6]\nclass = SIRA", fillcolor="#f29cc2"] ;
279 -> 281 ;
282 [label="compactness <= 0.784\nentropy = 0.971\nsamples = 4\nvalue = [0, 0, 0, 0, 0, 3, 2]\nclass = HOROZ", fillcolor="#e5bdf6"] ;
281 -> 282 ;
283 [label="entropy = 0.0\nsamples = 1\nvalue = [0, 0, 0, 0, 0, 2, 0]\nclass = HOROZ", fillcolor="#b139e5"] ;
282 -> 283 ;
284 [label="perimeter <= 745.124\nentropy = 0.918\nsamples = 3\nvalue = [0, 0, 0, 0, 0, 1, 2]\nclass = SIRA", fillcolor="#f29cc2"] ;
282 -> 284 ;
285 [label="entropy = 0.0\nsamples = 1\nvalue = [0, 0, 0, 0, 0, 1, 0]\nclass = HOROZ", fillcolor="#b139e5"] ;
284 -> 285 ;
286 [label="entropy = 0.0\nsamples = 2\nvalue = [0, 0, 0, 0, 0, 0, 2]\nclass = SIRA", fillcolor="#e53986"] ;
284 -> 286 ;
287 [label="entropy = 0.0\nsamples = 2\nvalue = [0, 0, 0, 0, 0, 0, 4]\nclass = SIRA", fillcolor="#e53986"] ;
281 -> 287 ;
288 [label="shapefactor4 <= 0.998\nentropy = 1.106\nsamples = 189\nvalue = [6, 1, 0, 0, 102, 0, 176]\nclass = SIRA", fillcolor="#f4afce"] ;
270 -> 288 ;
289 [label="convexarea <= 42605.0\nentropy = 0.981\nsamples = 165\nvalue = [1.0, 1.0, 0.0, 0.0, 81.0, 0.0, 166.0]\nclass = SIRA", fillcolor="#f29bc2"] ;
288 -> 289 ;
290 [label="roundness <= 0.915\nentropy = 1.022\nsamples = 141\nvalue = [1, 1, 0, 0, 81, 0, 140]\nclass = SIRA", fillcolor="#f4adcd"] ;
289 -> 290 ;
291 [label="eccentricity <= 0.689\nentropy = 0.98\nsamples = 118\nvalue = [1.0, 1.0, 0.0, 0.0, 57.0, 0.0, 127.0]\nclass = SIRA", fillcolor="#f194bd"] ;
290 -> 291 ;
292 [label="entropy = 1.0\nsamples = 2\nvalue = [1, 0, 0, 0, 1, 0, 0]\nclass = SEKER", fillcolor="#ffffff"] ;
291 -> 292 ;
293 [label="extent <= 0.713\nentropy = 0.932\nsamples = 116\nvalue = [0.0, 1.0, 0.0, 0.0, 56.0, 0.0, 127.0]\nclass = SIRA", fillcolor="#f191bc"] ;
291 -> 293 ;
294 [label="shapefactor4 <= 0.997\nentropy = 1.136\nsamples = 27\nvalue = [0.0, 1.0, 0.0, 0.0, 21.0, 0.0, 16.0]\nclass = DERMASON", fillcolor="#d2d9f9"] ;
293 -> 294 ;
295 [label="eccentricity <= 0.779\nentropy = 0.98\nsamples = 19\nvalue = [0, 0, 0, 0, 10, 0, 14]\nclass = SIRA", fillcolor="#f8c6dc"] ;
294 -> 295 ;
296 [label="eccentricity <= 0.754\nentropy = 0.881\nsamples = 16\nvalue = [0, 0, 0, 0, 6, 0, 14]\nclass = SIRA", fillcolor="#f08eba"] ;
295 -> 296 ;
297 [label="equivdiameter <= 230.713\nentropy = 0.65\nsamples = 4\nvalue = [0, 0, 0, 0, 5, 0, 1]\nclass = DERMASON", fillcolor="#6178ea"] ;
296 -> 297 ;
298 [label="entropy = 0.0\nsamples = 3\nvalue = [0, 0, 0, 0, 5, 0, 0]\nclass = DERMASON", fillcolor="#3956e5"] ;
297 -> 298 ;
299 [label="entropy = 0.0\nsamples = 1\nvalue = [0, 0, 0, 0, 0, 0, 1]\nclass = SIRA", fillcolor="#e53986"] ;
297 -> 299 ;
300 [label="shapefactor4 <= 0.997\nentropy = 0.371\nsamples = 12\nvalue = [0, 0, 0, 0, 1, 0, 13]\nclass = SIRA", fillcolor="#e7488f"] ;
296 -> 300 ;
301 [label="entropy = 0.0\nsamples = 10\nvalue = [0, 0, 0, 0, 0, 0, 12]\nclass = SIRA", fillcolor="#e53986"] ;
300 -> 301 ;
302 [label="entropy = 1.0\nsamples = 2\nvalue = [0, 0, 0, 0, 1, 0, 1]\nclass = DERMASON", fillcolor="#ffffff"] ;
300 -> 302 ;
303 [label="entropy = 0.0\nsamples = 3\nvalue = [0, 0, 0, 0, 4, 0, 0]\nclass = DERMASON", fillcolor="#3956e5"] ;
295 -> 303 ;
304 [label="aspectration <= 1.632\nentropy = 0.946\nsamples = 8\nvalue = [0, 1, 0, 0, 11, 0, 2]\nclass = DERMASON", fillcolor="#6b80ec"] ;
294 -> 304 ;
305 [label="shapefactor3 <= 0.65\nentropy = 0.414\nsamples = 7\nvalue = [0, 1, 0, 0, 11, 0, 0]\nclass = DERMASON", fillcolor="#4b65e7"] ;
304 -> 305 ;
306 [label="entropy = 0.0\nsamples = 6\nvalue = [0, 0, 0, 0, 11, 0, 0]\nclass = DERMASON", fillcolor="#3956e5"] ;
305 -> 306 ;
307 [label="entropy = 0.0\nsamples = 1\nvalue = [0, 1, 0, 0, 0, 0, 0]\nclass = BARBUNYA", fillcolor="#b7e539"] ;
305 -> 307 ;
308 [label="entropy = 0.0\nsamples = 1\nvalue = [0, 0, 0, 0, 0, 0, 2]\nclass = SIRA", fillcolor="#e53986"] ;
304 -> 308 ;
309 [label="convexarea <= 41037.0\nentropy = 0.795\nsamples = 89\nvalue = [0, 0, 0, 0, 35, 0, 111]\nclass = SIRA", fillcolor="#ed77ac"] ;
293 -> 309 ;
310 [label="perimeter <= 745.827\nentropy = 0.474\nsamples = 43\nvalue = [0, 0, 0, 0, 7, 0, 62]\nclass = SIRA", fillcolor="#e84f94"] ;
309 -> 310 ;
311 [label="extent <= 0.747\nentropy = 0.84\nsamples = 14\nvalue = [0, 0, 0, 0, 7, 0, 19]\nclass = SIRA", fillcolor="#ef82b3"] ;
310 -> 311 ;
312 [label="entropy = 0.0\nsamples = 3\nvalue = [0, 0, 0, 0, 5, 0, 0]\nclass = DERMASON", fillcolor="#3956e5"] ;
311 -> 312 ;
313 [label="equivdiameter <= 225.925\nentropy = 0.454\nsamples = 11\nvalue = [0, 0, 0, 0, 2, 0, 19]\nclass = SIRA", fillcolor="#e84e93"] ;
311 -> 313 ;
314 [label="eccentricity <= 0.754\nentropy = 0.297\nsamples = 9\nvalue = [0, 0, 0, 0, 1, 0, 18]\nclass = SIRA", fillcolor="#e6448d"] ;
313 -> 314 ;
315 [label="entropy = 0.0\nsamples = 5\nvalue = [0, 0, 0, 0, 0, 0, 11]\nclass = SIRA", fillcolor="#e53986"] ;
314 -> 315 ;
316 [label="compactness <= 0.806\nentropy = 0.544\nsamples = 4\nvalue = [0, 0, 0, 0, 1, 0, 7]\nclass = SIRA", fillcolor="#e95597"] ;
314 -> 316 ;
317 [label="entropy = 0.0\nsamples = 3\nvalue = [0, 0, 0, 0, 0, 0, 7]\nclass = SIRA", fillcolor="#e53986"] ;
316 -> 317 ;
318 [label="entropy = 0.0\nsamples = 1\nvalue = [0, 0, 0, 0, 1, 0, 0]\nclass = DERMASON", fillcolor="#3956e5"] ;
316 -> 318 ;
319 [label="entropy = 1.0\nsamples = 2\nvalue = [0, 0, 0, 0, 1, 0, 1]\nclass = DERMASON", fillcolor="#ffffff"] ;
313 -> 319 ;
320 [label="entropy = 0.0\nsamples = 29\nvalue = [0, 0, 0, 0, 0, 0, 43]\nclass = SIRA", fillcolor="#e53986"] ;
310 -> 320 ;
321 [label="aspectration <= 1.618\nentropy = 0.946\nsamples = 46\nvalue = [0, 0, 0, 0, 28, 0, 49]\nclass = SIRA", fillcolor="#f4aacb"] ;
309 -> 321 ;
322 [label="shapefactor4 <= 0.994\nentropy = 0.851\nsamples = 38\nvalue = [0, 0, 0, 0, 18, 0, 47]\nclass = SIRA", fillcolor="#ef85b4"] ;
321 -> 322 ;
323 [label="entropy = 0.0\nsamples = 1\nvalue = [0, 0, 0, 0, 4, 0, 0]\nclass = DERMASON", fillcolor="#3956e5"] ;
322 -> 323 ;
324 [label="convexarea <= 41095.5\nentropy = 0.777\nsamples = 37\nvalue = [0, 0, 0, 0, 14, 0, 47]\nclass = SIRA", fillcolor="#ed74aa"] ;
322 -> 324 ;
325 [label="entropy = 0.0\nsamples = 2\nvalue = [0, 0, 0, 0, 4, 0, 0]\nclass = DERMASON", fillcolor="#3956e5"] ;
324 -> 325 ;
326 [label="extent <= 0.818\nentropy = 0.67\nsamples = 35\nvalue = [0, 0, 0, 0, 10, 0, 47]\nclass = SIRA", fillcolor="#eb63a0"] ;
324 -> 326 ;
327 [label="roundness <= 0.898\nentropy = 0.556\nsamples = 34\nvalue = [0, 0, 0, 0, 7, 0, 47]\nclass = SIRA", fillcolor="#e95698"] ;
326 -> 327 ;
328 [label="entropy = 0.0\nsamples = 14\nvalue = [0, 0, 0, 0, 0, 0, 20]\nclass = SIRA", fillcolor="#e53986"] ;
327 -> 328 ;
329 [label="perimeter <= 763.475\nentropy = 0.734\nsamples = 20\nvalue = [0, 0, 0, 0, 7, 0, 27]\nclass = SIRA", fillcolor="#ec6ca5"] ;
327 -> 329 ;
330 [label="convexarea <= 41375.5\nentropy = 0.491\nsamples = 16\nvalue = [0, 0, 0, 0, 3, 0, 25]\nclass = SIRA", fillcolor="#e85195"] ;
329 -> 330 ;
331 [label="entropy = 0.971\nsamples = 3\nvalue = [0, 0, 0, 0, 3, 0, 2]\nclass = DERMASON", fillcolor="#bdc7f6"] ;
330 -> 331 ;
332 [label="entropy = 0.0\nsamples = 13\nvalue = [0, 0, 0, 0, 0, 0, 23]\nclass = SIRA", fillcolor="#e53986"] ;
330 -> 332 ;
333 [label="solidity <= 0.989\nentropy = 0.918\nsamples = 4\nvalue = [0, 0, 0, 0, 4, 0, 2]\nclass = DERMASON", fillcolor="#9caaf2"] ;
329 -> 333 ;
334 [label="entropy = 0.0\nsamples = 2\nvalue = [0, 0, 0, 0, 4, 0, 0]\nclass = DERMASON", fillcolor="#3956e5"] ;
333 -> 334 ;
335 [label="entropy = 0.0\nsamples = 2\nvalue = [0, 0, 0, 0, 0, 0, 2]\nclass = SIRA", fillcolor="#e53986"] ;
333 -> 335 ;
336 [label="entropy = 0.0\nsamples = 1\nvalue = [0, 0, 0, 0, 3, 0, 0]\nclass = DERMASON", fillcolor="#3956e5"] ;
326 -> 336 ;
337 [label="extent <= 0.801\nentropy = 0.65\nsamples = 8\nvalue = [0, 0, 0, 0, 10, 0, 2]\nclass = DERMASON", fillcolor="#6178ea"] ;
321 -> 337 ;
338 [label="entropy = 0.0\nsamples = 6\nvalue = [0, 0, 0, 0, 10, 0, 0]\nclass = DERMASON", fillcolor="#3956e5"] ;
337 -> 338 ;
339 [label="entropy = 0.0\nsamples = 2\nvalue = [0, 0, 0, 0, 0, 0, 2]\nclass = SIRA", fillcolor="#e53986"] ;
337 -> 339 ;
340 [label="equivdiameter <= 227.181\nentropy = 0.935\nsamples = 23\nvalue = [0, 0, 0, 0, 24, 0, 13]\nclass = DERMASON", fillcolor="#a4b2f3"] ;
290 -> 340 ;
341 [label="minoraxislength <= 190.4\nentropy = 0.523\nsamples = 12\nvalue = [0, 0, 0, 0, 15, 0, 2]\nclass = DERMASON", fillcolor="#536de8"] ;
340 -> 341 ;
342 [label="entropy = 0.0\nsamples = 10\nvalue = [0, 0, 0, 0, 15, 0, 0]\nclass = DERMASON", fillcolor="#3956e5"] ;
341 -> 342 ;
343 [label="entropy = 0.0\nsamples = 2\nvalue = [0, 0, 0, 0, 0, 0, 2]\nclass = SIRA", fillcolor="#e53986"] ;
341 -> 343 ;
344 [label="equivdiameter <= 229.401\nentropy = 0.993\nsamples = 11\nvalue = [0, 0, 0, 0, 9, 0, 11]\nclass = SIRA", fillcolor="#fadbe9"] ;
340 -> 344 ;
345 [label="minoraxislength <= 191.041\nentropy = 0.439\nsamples = 6\nvalue = [0, 0, 0, 0, 1, 0, 10]\nclass = SIRA", fillcolor="#e84d92"] ;
344 -> 345 ;
346 [label="entropy = 0.0\nsamples = 5\nvalue = [0, 0, 0, 0, 0, 0, 10]\nclass = SIRA", fillcolor="#e53986"] ;
345 -> 346 ;
347 [label="entropy = 0.0\nsamples = 1\nvalue = [0, 0, 0, 0, 1, 0, 0]\nclass = DERMASON", fillcolor="#3956e5"] ;
345 -> 347 ;
348 [label="minoraxislength <= 188.525\nentropy = 0.503\nsamples = 5\nvalue = [0, 0, 0, 0, 8, 0, 1]\nclass = DERMASON", fillcolor="#526be8"] ;
344 -> 348 ;
349 [label="shapefactor1 <= 0.007\nentropy = 0.811\nsamples = 3\nvalue = [0, 0, 0, 0, 3, 0, 1]\nclass = DERMASON", fillcolor="#7b8eee"] ;
348 -> 349 ;
350 [label="entropy = 0.0\nsamples = 1\nvalue = [0, 0, 0, 0, 0, 0, 1]\nclass = SIRA", fillcolor="#e53986"] ;
349 -> 350 ;
351 [label="entropy = 0.0\nsamples = 2\nvalue = [0, 0, 0, 0, 3, 0, 0]\nclass = DERMASON", fillcolor="#3956e5"] ;
349 -> 351 ;
352 [label="entropy = 0.0\nsamples = 2\nvalue = [0, 0, 0, 0, 5, 0, 0]\nclass = DERMASON", fillcolor="#3956e5"] ;
348 -> 352 ;
353 [label="entropy = 0.0\nsamples = 24\nvalue = [0, 0, 0, 0, 0, 0, 26]\nclass = SIRA", fillcolor="#e53986"] ;
289 -> 353 ;
354 [label="shapefactor1 <= 0.007\nentropy = 1.362\nsamples = 24\nvalue = [5, 0, 0, 0, 21, 0, 10]\nclass = DERMASON", fillcolor="#abb8f4"] ;
288 -> 354 ;
355 [label="extent <= 0.776\nentropy = 1.0\nsamples = 7\nvalue = [5, 0, 0, 0, 0, 0, 5]\nclass = SEKER", fillcolor="#ffffff"] ;
354 -> 355 ;
356 [label="minoraxislength <= 190.45\nentropy = 0.863\nsamples = 5\nvalue = [2, 0, 0, 0, 0, 0, 5]\nclass = SIRA", fillcolor="#ef88b6"] ;
355 -> 356 ;
357 [label="entropy = 0.0\nsamples = 2\nvalue = [0, 0, 0, 0, 0, 0, 4]\nclass = SIRA", fillcolor="#e53986"] ;
356 -> 357 ;
358 [label="minoraxislength <= 192.326\nentropy = 0.918\nsamples = 3\nvalue = [2, 0, 0, 0, 0, 0, 1]\nclass = SEKER", fillcolor="#f2c09c"] ;
356 -> 358 ;
359 [label="entropy = 0.0\nsamples = 1\nvalue = [1, 0, 0, 0, 0, 0, 0]\nclass = SEKER", fillcolor="#e58139"] ;
358 -> 359 ;
360 [label="entropy = 1.0\nsamples = 2\nvalue = [1, 0, 0, 0, 0, 0, 1]\nclass = SEKER", fillcolor="#ffffff"] ;
358 -> 360 ;
361 [label="entropy = 0.0\nsamples = 2\nvalue = [3, 0, 0, 0, 0, 0, 0]\nclass = SEKER", fillcolor="#e58139"] ;
355 -> 361 ;
362 [label="roundness <= 0.915\nentropy = 0.706\nsamples = 17\nvalue = [0, 0, 0, 0, 21, 0, 5]\nclass = DERMASON", fillcolor="#687eeb"] ;
354 -> 362 ;
363 [label="majoraxislength <= 287.609\nentropy = 0.874\nsamples = 11\nvalue = [0, 0, 0, 0, 12, 0, 5]\nclass = DERMASON", fillcolor="#8b9cf0"] ;
362 -> 363 ;
364 [label="minoraxislength <= 185.518\nentropy = 1.0\nsamples = 7\nvalue = [0, 0, 0, 0, 5, 0, 5]\nclass = DERMASON", fillcolor="#ffffff"] ;
363 -> 364 ;
365 [label="minoraxislength <= 180.697\nentropy = 0.863\nsamples = 6\nvalue = [0, 0, 0, 0, 2, 0, 5]\nclass = SIRA", fillcolor="#ef88b6"] ;
364 -> 365 ;
366 [label="entropy = 0.0\nsamples = 2\nvalue = [0, 0, 0, 0, 2, 0, 0]\nclass = DERMASON", fillcolor="#3956e5"] ;
365 -> 366 ;
367 [label="entropy = 0.0\nsamples = 4\nvalue = [0, 0, 0, 0, 0, 0, 5]\nclass = SIRA", fillcolor="#e53986"] ;
365 -> 367 ;
368 [label="entropy = 0.0\nsamples = 1\nvalue = [0, 0, 0, 0, 3, 0, 0]\nclass = DERMASON", fillcolor="#3956e5"] ;
364 -> 368 ;
369 [label="entropy = 0.0\nsamples = 4\nvalue = [0, 0, 0, 0, 7, 0, 0]\nclass = DERMASON", fillcolor="#3956e5"] ;
363 -> 369 ;
370 [label="entropy = 0.0\nsamples = 6\nvalue = [0, 0, 0, 0, 9, 0, 0]\nclass = DERMASON", fillcolor="#3956e5"] ;
362 -> 370 ;
371 [label="equivdiameter <= 228.245\nentropy = 0.881\nsamples = 22\nvalue = [21, 0, 0, 0, 9, 0, 0]\nclass = SEKER", fillcolor="#f0b78e"] ;
269 -> 371 ;
372 [label="shapefactor1 <= 0.007\nentropy = 0.722\nsamples = 8\nvalue = [2, 0, 0, 0, 8, 0, 0]\nclass = DERMASON", fillcolor="#6a80ec"] ;
371 -> 372 ;
373 [label="equivdiameter <= 227.577\nentropy = 0.918\nsamples = 3\nvalue = [2, 0, 0, 0, 1, 0, 0]\nclass = SEKER", fillcolor="#f2c09c"] ;
372 -> 373 ;
374 [label="entropy = 0.0\nsamples = 2\nvalue = [2, 0, 0, 0, 0, 0, 0]\nclass = SEKER", fillcolor="#e58139"] ;
373 -> 374 ;
375 [label="entropy = 0.0\nsamples = 1\nvalue = [0, 0, 0, 0, 1, 0, 0]\nclass = DERMASON", fillcolor="#3956e5"] ;
373 -> 375 ;
376 [label="entropy = 0.0\nsamples = 5\nvalue = [0, 0, 0, 0, 7, 0, 0]\nclass = DERMASON", fillcolor="#3956e5"] ;
372 -> 376 ;
377 [label="extent <= 0.806\nentropy = 0.286\nsamples = 14\nvalue = [19, 0, 0, 0, 1, 0, 0]\nclass = SEKER", fillcolor="#e68843"] ;
371 -> 377 ;
378 [label="entropy = 0.0\nsamples = 13\nvalue = [19, 0, 0, 0, 0, 0, 0]\nclass = SEKER", fillcolor="#e58139"] ;
377 -> 378 ;
379 [label="entropy = 0.0\nsamples = 1\nvalue = [0, 0, 0, 0, 1, 0, 0]\nclass = DERMASON", fillcolor="#3956e5"] ;
377 -> 379 ;
380 [label="shapefactor3 <= 0.679\nentropy = 0.492\nsamples = 569\nvalue = [30.0, 21.0, 0.0, 0.0, 1.0, 13.0, 830.0]\nclass = SIRA", fillcolor="#e7488f"] ;
268 -> 380 ;
381 [label="minoraxislength <= 185.66\nentropy = 0.327\nsamples = 524\nvalue = [9.0, 12.0, 0.0, 0.0, 1.0, 13.0, 786.0]\nclass = SIRA", fillcolor="#e6428b"] ;
380 -> 381 ;
382 [label="perimeter <= 840.755\nentropy = 0.61\nsamples = 97\nvalue = [0, 4, 0, 0, 1, 12, 141]\nclass = SIRA", fillcolor="#e85094"] ;
381 -> 382 ;
383 [label="roundness <= 0.794\nentropy = 0.442\nsamples = 93\nvalue = [0, 4, 0, 0, 1, 5, 141]\nclass = SIRA", fillcolor="#e7478e"] ;
382 -> 383 ;
384 [label="aspectration <= 1.564\nentropy = 0.722\nsamples = 3\nvalue = [0, 4, 0, 0, 0, 0, 1]\nclass = BARBUNYA", fillcolor="#c9ec6a"] ;
383 -> 384 ;
385 [label="entropy = 0.0\nsamples = 1\nvalue = [0, 0, 0, 0, 0, 0, 1]\nclass = SIRA", fillcolor="#e53986"] ;
384 -> 385 ;
386 [label="entropy = 0.0\nsamples = 2\nvalue = [0, 4, 0, 0, 0, 0, 0]\nclass = BARBUNYA", fillcolor="#b7e539"] ;
384 -> 386 ;
387 [label="roundness <= 0.858\nentropy = 0.274\nsamples = 90\nvalue = [0, 0, 0, 0, 1, 5, 140]\nclass = SIRA", fillcolor="#e6418b"] ;
383 -> 387 ;
388 [label="shapefactor3 <= 0.614\nentropy = 0.561\nsamples = 38\nvalue = [0, 0, 0, 0, 1, 5, 50]\nclass = SIRA", fillcolor="#e85094"] ;
387 -> 388 ;
389 [label="minoraxislength <= 173.011\nentropy = 0.391\nsamples = 34\nvalue = [0, 0, 0, 0, 0, 4, 48]\nclass = SIRA", fillcolor="#e74990"] ;
388 -> 389 ;
390 [label="entropy = 0.918\nsamples = 2\nvalue = [0, 0, 0, 0, 0, 2, 1]\nclass = HOROZ", fillcolor="#d89cf2"] ;
389 -> 390 ;
391 [label="shapefactor4 <= 0.995\nentropy = 0.246\nsamples = 32\nvalue = [0.0, 0.0, 0.0, 0.0, 0.0, 2.0, 47.0]\nclass = SIRA", fillcolor="#e6418b"] ;
389 -> 391 ;
392 [label="shapefactor3 <= 0.544\nentropy = 0.469\nsamples = 16\nvalue = [0, 0, 0, 0, 0, 2, 18]\nclass = SIRA", fillcolor="#e84f93"] ;
391 -> 392 ;
393 [label="entropy = 0.0\nsamples = 1\nvalue = [0, 0, 0, 0, 0, 1, 0]\nclass = HOROZ", fillcolor="#b139e5"] ;
392 -> 393 ;
394 [label="shapefactor4 <= 0.995\nentropy = 0.297\nsamples = 15\nvalue = [0, 0, 0, 0, 0, 1, 18]\nclass = SIRA", fillcolor="#e6448d"] ;
392 -> 394 ;
395 [label="entropy = 0.0\nsamples = 14\nvalue = [0, 0, 0, 0, 0, 0, 18]\nclass = SIRA", fillcolor="#e53986"] ;
394 -> 395 ;
396 [label="entropy = 0.0\nsamples = 1\nvalue = [0, 0, 0, 0, 0, 1, 0]\nclass = HOROZ", fillcolor="#b139e5"] ;
394 -> 396 ;
397 [label="entropy = 0.0\nsamples = 16\nvalue = [0, 0, 0, 0, 0, 0, 29]\nclass = SIRA", fillcolor="#e53986"] ;
391 -> 397 ;
398 [label="convexarea <= 42436.0\nentropy = 1.5\nsamples = 4\nvalue = [0, 0, 0, 0, 1, 1, 2]\nclass = SIRA", fillcolor="#f6bdd7"] ;
388 -> 398 ;
399 [label="entropy = 0.0\nsamples = 2\nvalue = [0, 0, 0, 0, 0, 0, 2]\nclass = SIRA", fillcolor="#e53986"] ;
398 -> 399 ;
400 [label="entropy = 1.0\nsamples = 2\nvalue = [0, 0, 0, 0, 1, 1, 0]\nclass = DERMASON", fillcolor="#ffffff"] ;
398 -> 400 ;
401 [label="entropy = 0.0\nsamples = 52\nvalue = [0, 0, 0, 0, 0, 0, 90]\nclass = SIRA", fillcolor="#e53986"] ;
387 -> 401 ;
402 [label="entropy = 0.0\nsamples = 4\nvalue = [0, 0, 0, 0, 0, 7, 0]\nclass = HOROZ", fillcolor="#b139e5"] ;
382 -> 402 ;
403 [label="solidity <= 0.988\nentropy = 0.214\nsamples = 427\nvalue = [9, 8, 0, 0, 0, 1, 645]\nclass = SIRA", fillcolor="#e63e89"] ;
381 -> 403 ;
404 [label="shapefactor1 <= 0.007\nentropy = 0.24\nsamples = 153\nvalue = [1.0, 8.0, 0.0, 0.0, 0.0, 0.0, 244.0]\nclass = SIRA", fillcolor="#e6408a"] ;
403 -> 404 ;
405 [label="shapefactor4 <= 0.997\nentropy = 0.354\nsamples = 90\nvalue = [1, 8, 0, 0, 0, 0, 143]\nclass = SIRA", fillcolor="#e7458e"] ;
404 -> 405 ;
406 [label="majoraxislength <= 293.609\nentropy = 0.062\nsamples = 81\nvalue = [0, 1, 0, 0, 0, 0, 138]\nclass = SIRA", fillcolor="#e53a87"] ;
405 -> 406 ;
407 [label="majoraxislength <= 293.365\nentropy = 0.31\nsamples = 10\nvalue = [0, 1, 0, 0, 0, 0, 17]\nclass = SIRA", fillcolor="#e7458d"] ;
406 -> 407 ;
408 [label="entropy = 0.0\nsamples = 9\nvalue = [0, 0, 0, 0, 0, 0, 17]\nclass = SIRA", fillcolor="#e53986"] ;
407 -> 408 ;
409 [label="entropy = 0.0\nsamples = 1\nvalue = [0, 1, 0, 0, 0, 0, 0]\nclass = BARBUNYA", fillcolor="#b7e539"] ;
407 -> 409 ;
410 [label="entropy = 0.0\nsamples = 71\nvalue = [0, 0, 0, 0, 0, 0, 121]\nclass = SIRA", fillcolor="#e53986"] ;
406 -> 410 ;
411 [label="solidity <= 0.986\nentropy = 1.296\nsamples = 9\nvalue = [1, 7, 0, 0, 0, 0, 5]\nclass = BARBUNYA", fillcolor="#edf8ce"] ;
405 -> 411 ;
412 [label="entropy = 0.0\nsamples = 3\nvalue = [0, 5, 0, 0, 0, 0, 0]\nclass = BARBUNYA", fillcolor="#b7e539"] ;
411 -> 412 ;
413 [label="solidity <= 0.988\nentropy = 1.299\nsamples = 6\nvalue = [1, 2, 0, 0, 0, 0, 5]\nclass = SIRA", fillcolor="#f29cc2"] ;
411 -> 413 ;
414 [label="minoraxislength <= 194.001\nentropy = 0.65\nsamples = 5\nvalue = [1, 0, 0, 0, 0, 0, 5]\nclass = SIRA", fillcolor="#ea619e"] ;
413 -> 414 ;
415 [label="entropy = 0.0\nsamples = 1\nvalue = [1, 0, 0, 0, 0, 0, 0]\nclass = SEKER", fillcolor="#e58139"] ;
414 -> 415 ;
416 [label="entropy = 0.0\nsamples = 4\nvalue = [0, 0, 0, 0, 0, 0, 5]\nclass = SIRA", fillcolor="#e53986"] ;
414 -> 416 ;
417 [label="entropy = 0.0\nsamples = 1\nvalue = [0, 2, 0, 0, 0, 0, 0]\nclass = BARBUNYA", fillcolor="#b7e539"] ;
413 -> 417 ;
418 [label="entropy = 0.0\nsamples = 63\nvalue = [0, 0, 0, 0, 0, 0, 101]\nclass = SIRA", fillcolor="#e53986"] ;
404 -> 418 ;
419 [label="shapefactor4 <= 0.999\nentropy = 0.163\nsamples = 274\nvalue = [8, 0, 0, 0, 0, 1, 401]\nclass = SIRA", fillcolor="#e63d89"] ;
403 -> 419 ;
420 [label="roundness <= 0.919\nentropy = 0.135\nsamples = 273\nvalue = [6, 0, 0, 0, 0, 1, 401]\nclass = SIRA", fillcolor="#e53c88"] ;
419 -> 420 ;
421 [label="majoraxislength <= 323.026\nentropy = 0.063\nsamples = 268\nvalue = [3, 0, 0, 0, 0, 0, 399]\nclass = SIRA", fillcolor="#e53a87"] ;
420 -> 421 ;
422 [label="entropy = 0.0\nsamples = 246\nvalue = [0, 0, 0, 0, 0, 0, 371]\nclass = SIRA", fillcolor="#e53986"] ;
421 -> 422 ;
423 [label="compactness <= 0.769\nentropy = 0.459\nsamples = 22\nvalue = [3, 0, 0, 0, 0, 0, 28]\nclass = SIRA", fillcolor="#e84e93"] ;
421 -> 423 ;
424 [label="entropy = 0.0\nsamples = 14\nvalue = [0, 0, 0, 0, 0, 0, 21]\nclass = SIRA", fillcolor="#e53986"] ;
423 -> 424 ;
425 [label="solidity <= 0.99\nentropy = 0.881\nsamples = 8\nvalue = [3, 0, 0, 0, 0, 0, 7]\nclass = SIRA", fillcolor="#f08eba"] ;
423 -> 425 ;
426 [label="shapefactor2 <= 0.001\nentropy = 1.0\nsamples = 6\nvalue = [3, 0, 0, 0, 0, 0, 3]\nclass = SEKER", fillcolor="#ffffff"] ;
425 -> 426 ;
427 [label="perimeter <= 848.03\nentropy = 0.811\nsamples = 4\nvalue = [3, 0, 0, 0, 0, 0, 1]\nclass = SEKER", fillcolor="#eeab7b"] ;
426 -> 427 ;
428 [label="entropy = 0.0\nsamples = 2\nvalue = [2, 0, 0, 0, 0, 0, 0]\nclass = SEKER", fillcolor="#e58139"] ;
427 -> 428 ;
429 [label="entropy = 1.0\nsamples = 2\nvalue = [1, 0, 0, 0, 0, 0, 1]\nclass = SEKER", fillcolor="#ffffff"] ;
427 -> 429 ;
430 [label="entropy = 0.0\nsamples = 2\nvalue = [0, 0, 0, 0, 0, 0, 2]\nclass = SIRA", fillcolor="#e53986"] ;
426 -> 430 ;
431 [label="entropy = 0.0\nsamples = 2\nvalue = [0, 0, 0, 0, 0, 0, 4]\nclass = SIRA", fillcolor="#e53986"] ;
425 -> 431 ;
432 [label="convexarea <= 44326.5\nentropy = 1.459\nsamples = 5\nvalue = [3, 0, 0, 0, 0, 1, 2]\nclass = SEKER", fillcolor="#f8e0ce"] ;
420 -> 432 ;
433 [label="entropy = 0.0\nsamples = 1\nvalue = [0, 0, 0, 0, 0, 1, 0]\nclass = HOROZ", fillcolor="#b139e5"] ;
432 -> 433 ;
434 [label="shapefactor4 <= 0.998\nentropy = 0.971\nsamples = 4\nvalue = [3, 0, 0, 0, 0, 0, 2]\nclass = SEKER", fillcolor="#f6d5bd"] ;
432 -> 434 ;
435 [label="entropy = 0.0\nsamples = 2\nvalue = [0, 0, 0, 0, 0, 0, 2]\nclass = SIRA", fillcolor="#e53986"] ;
434 -> 435 ;
436 [label="entropy = 0.0\nsamples = 2\nvalue = [3, 0, 0, 0, 0, 0, 0]\nclass = SEKER", fillcolor="#e58139"] ;
434 -> 436 ;
437 [label="entropy = 0.0\nsamples = 1\nvalue = [2, 0, 0, 0, 0, 0, 0]\nclass = SEKER", fillcolor="#e58139"] ;
419 -> 437 ;
438 [label="shapefactor4 <= 0.998\nentropy = 1.331\nsamples = 45\nvalue = [21, 9, 0, 0, 0, 0, 44]\nclass = SIRA", fillcolor="#f4a9ca"] ;
380 -> 438 ;
439 [label="eccentricity <= 0.706\nentropy = 1.011\nsamples = 32\nvalue = [4, 9, 0, 0, 0, 0, 41]\nclass = SIRA", fillcolor="#ed72a9"] ;
438 -> 439 ;
440 [label="roundness <= 0.887\nentropy = 1.437\nsamples = 11\nvalue = [3, 9, 0, 0, 0, 0, 10]\nclass = SIRA", fillcolor="#fdf0f6"] ;
439 -> 440 ;
441 [label="entropy = 0.0\nsamples = 2\nvalue = [0, 7, 0, 0, 0, 0, 0]\nclass = BARBUNYA", fillcolor="#b7e539"] ;
440 -> 441 ;
442 [label="roundness <= 0.937\nentropy = 1.242\nsamples = 9\nvalue = [3, 2, 0, 0, 0, 0, 10]\nclass = SIRA", fillcolor="#f08cb8"] ;
440 -> 442 ;
443 [label="equivdiameter <= 247.158\nentropy = 0.65\nsamples = 8\nvalue = [0, 2, 0, 0, 0, 0, 10]\nclass = SIRA", fillcolor="#ea619e"] ;
442 -> 443 ;
444 [label="entropy = 0.0\nsamples = 6\nvalue = [0, 0, 0, 0, 0, 0, 10]\nclass = SIRA", fillcolor="#e53986"] ;
443 -> 444 ;
445 [label="entropy = 0.0\nsamples = 2\nvalue = [0, 2, 0, 0, 0, 0, 0]\nclass = BARBUNYA", fillcolor="#b7e539"] ;
443 -> 445 ;
446 [label="entropy = 0.0\nsamples = 1\nvalue = [3, 0, 0, 0, 0, 0, 0]\nclass = SEKER", fillcolor="#e58139"] ;
442 -> 446 ;
447 [label="extent <= 0.706\nentropy = 0.201\nsamples = 21\nvalue = [1, 0, 0, 0, 0, 0, 31]\nclass = SIRA", fillcolor="#e63f8a"] ;
439 -> 447 ;
448 [label="entropy = 1.0\nsamples = 2\nvalue = [1, 0, 0, 0, 0, 0, 1]\nclass = SEKER", fillcolor="#ffffff"] ;
447 -> 448 ;
449 [label="entropy = 0.0\nsamples = 19\nvalue = [0, 0, 0, 0, 0, 0, 30]\nclass = SIRA", fillcolor="#e53986"] ;
447 -> 449 ;
450 [label="extent <= 0.743\nentropy = 0.61\nsamples = 13\nvalue = [17, 0, 0, 0, 0, 0, 3]\nclass = SEKER", fillcolor="#ea975c"] ;
438 -> 450 ;
451 [label="area <= 46703.5\nentropy = 0.954\nsamples = 6\nvalue = [5, 0, 0, 0, 0, 0, 3]\nclass = SEKER", fillcolor="#f5cdb0"] ;
450 -> 451 ;
452 [label="entropy = 0.0\nsamples = 3\nvalue = [0, 0, 0, 0, 0, 0, 3]\nclass = SIRA", fillcolor="#e53986"] ;
451 -> 452 ;
453 [label="entropy = 0.0\nsamples = 3\nvalue = [5, 0, 0, 0, 0, 0, 0]\nclass = SEKER", fillcolor="#e58139"] ;
451 -> 453 ;
454 [label="entropy = 0.0\nsamples = 7\nvalue = [12, 0, 0, 0, 0, 0, 0]\nclass = SEKER", fillcolor="#e58139"] ;
450 -> 454 ;
455 [label="entropy = 0.0\nsamples = 86\nvalue = [0, 0, 0, 0, 0, 143, 0]\nclass = HOROZ", fillcolor="#b139e5"] ;
267 -> 455 ;
456 [label="equivdiameter <= 286.698\nentropy = 2.138\nsamples = 1702\nvalue = [21, 675, 292, 833, 0, 739, 116]\nclass = CALI", fillcolor="#f5fefe"] ;
0 -> 456 [labeldistance=2.5, labelangle=-45, headlabel="False"] ;
457 [label="shapefactor1 <= 0.006\nentropy = 1.57\nsamples = 703\nvalue = [21, 185, 0, 72, 0, 684, 116]\nclass = HOROZ", fillcolor="#d390f0"] ;
456 -> 457 ;
458 [label="equivdiameter <= 271.928\nentropy = 1.824\nsamples = 214\nvalue = [21.0, 178.0, 0.0, 66.0, 0.0, 13.0, 62.0]\nclass = BARBUNYA", fillcolor="#e2f4ae"] ;
457 -> 458 ;
459 [label="compactness <= 0.808\nentropy = 1.785\nsamples = 95\nvalue = [18.0, 63.0, 0.0, 15.0, 0.0, 1.0, 61.0]\nclass = BARBUNYA", fillcolor="#fefefb"] ;
458 -> 459 ;
460 [label="convexarea <= 56006.0\nentropy = 1.585\nsamples = 64\nvalue = [5.0, 26.0, 0.0, 12.0, 0.0, 1.0, 61.0]\nclass = SIRA", fillcolor="#f3a7c9"] ;
459 -> 460 ;
461 [label="perimeter <= 895.22\nentropy = 1.065\nsamples = 39\nvalue = [5, 11, 0, 0, 0, 0, 45]\nclass = SIRA", fillcolor="#ed78ad"] ;
460 -> 461 ;
462 [label="convexarea <= 55714.0\nentropy = 0.866\nsamples = 33\nvalue = [5, 5, 0, 0, 0, 0, 45]\nclass = SIRA", fillcolor="#ea619e"] ;
461 -> 462 ;
463 [label="roundness <= 0.852\nentropy = 0.607\nsamples = 31\nvalue = [1, 5, 0, 0, 0, 0, 44]\nclass = SIRA", fillcolor="#e85396"] ;
462 -> 463 ;
464 [label="entropy = 0.0\nsamples = 3\nvalue = [0, 3, 0, 0, 0, 0, 0]\nclass = BARBUNYA", fillcolor="#b7e539"] ;
463 -> 464 ;
465 [label="shapefactor1 <= 0.006\nentropy = 0.401\nsamples = 28\nvalue = [1, 2, 0, 0, 0, 0, 44]\nclass = SIRA", fillcolor="#e7468e"] ;
463 -> 465 ;
466 [label="shapefactor1 <= 0.006\nentropy = 1.299\nsamples = 5\nvalue = [1, 2, 0, 0, 0, 0, 5]\nclass = SIRA", fillcolor="#f29cc2"] ;
465 -> 466 ;
467 [label="entropy = 0.0\nsamples = 3\nvalue = [0, 0, 0, 0, 0, 0, 5]\nclass = SIRA", fillcolor="#e53986"] ;
466 -> 467 ;
468 [label="entropy = 0.918\nsamples = 2\nvalue = [1, 2, 0, 0, 0, 0, 0]\nclass = BARBUNYA", fillcolor="#dbf29c"] ;
466 -> 468 ;
469 [label="entropy = 0.0\nsamples = 23\nvalue = [0, 0, 0, 0, 0, 0, 39]\nclass = SIRA", fillcolor="#e53986"] ;
465 -> 469 ;
470 [label="entropy = 0.722\nsamples = 2\nvalue = [4, 0, 0, 0, 0, 0, 1]\nclass = SEKER", fillcolor="#eca06a"] ;
462 -> 470 ;
471 [label="entropy = 0.0\nsamples = 6\nvalue = [0, 6, 0, 0, 0, 0, 0]\nclass = BARBUNYA", fillcolor="#b7e539"] ;
461 -> 471 ;
472 [label="shapefactor4 <= 0.995\nentropy = 1.695\nsamples = 25\nvalue = [0.0, 15.0, 0.0, 12.0, 0.0, 1.0, 16.0]\nclass = SIRA", fillcolor="#fef8fb"] ;
460 -> 472 ;
473 [label="extent <= 0.743\nentropy = 1.229\nsamples = 14\nvalue = [0, 0, 0, 10, 0, 1, 10]\nclass = CALI", fillcolor="#ffffff"] ;
472 -> 473 ;
474 [label="solidity <= 0.987\nentropy = 0.65\nsamples = 7\nvalue = [0, 0, 0, 2, 0, 0, 10]\nclass = SIRA", fillcolor="#ea619e"] ;
473 -> 474 ;
475 [label="entropy = 0.0\nsamples = 6\nvalue = [0, 0, 0, 0, 0, 0, 10]\nclass = SIRA", fillcolor="#e53986"] ;
474 -> 475 ;
476 [label="entropy = 0.0\nsamples = 1\nvalue = [0, 0, 0, 2, 0, 0, 0]\nclass = CALI", fillcolor="#39e5e2"] ;
474 -> 476 ;
477 [label="shapefactor1 <= 0.006\nentropy = 0.503\nsamples = 7\nvalue = [0, 0, 0, 8, 0, 1, 0]\nclass = CALI", fillcolor="#52e8e6"] ;
473 -> 477 ;
478 [label="entropy = 0.0\nsamples = 5\nvalue = [0, 0, 0, 7, 0, 0, 0]\nclass = CALI", fillcolor="#39e5e2"] ;
477 -> 478 ;
479 [label="entropy = 1.0\nsamples = 2\nvalue = [0, 0, 0, 1, 0, 1, 0]\nclass = CALI", fillcolor="#ffffff"] ;
477 -> 479 ;
480 [label="compactness <= 0.789\nentropy = 1.214\nsamples = 11\nvalue = [0, 15, 0, 2, 0, 0, 6]\nclass = BARBUNYA", fillcolor="#d9f196"] ;
472 -> 480 ;
481 [label="solidity <= 0.99\nentropy = 1.459\nsamples = 7\nvalue = [0, 4, 0, 2, 0, 0, 6]\nclass = SIRA", fillcolor="#f8cee1"] ;
480 -> 481 ;
482 [label="compactness <= 0.762\nentropy = 0.722\nsamples = 4\nvalue = [0, 4, 0, 1, 0, 0, 0]\nclass = BARBUNYA", fillcolor="#c9ec6a"] ;
481 -> 482 ;
483 [label="entropy = 0.0\nsamples = 1\nvalue = [0, 2, 0, 0, 0, 0, 0]\nclass = BARBUNYA", fillcolor="#b7e539"] ;
482 -> 483 ;
484 [label="shapefactor2 <= 0.001\nentropy = 0.918\nsamples = 3\nvalue = [0, 2, 0, 1, 0, 0, 0]\nclass = BARBUNYA", fillcolor="#dbf29c"] ;
482 -> 484 ;
485 [label="entropy = 0.0\nsamples = 1\nvalue = [0, 0, 0, 1, 0, 0, 0]\nclass = CALI", fillcolor="#39e5e2"] ;
484 -> 485 ;
486 [label="entropy = 0.0\nsamples = 2\nvalue = [0, 2, 0, 0, 0, 0, 0]\nclass = BARBUNYA", fillcolor="#b7e539"] ;
484 -> 486 ;
487 [label="shapefactor4 <= 0.997\nentropy = 0.592\nsamples = 3\nvalue = [0, 0, 0, 1, 0, 0, 6]\nclass = SIRA", fillcolor="#e95a9a"] ;
481 -> 487 ;
488 [label="entropy = 0.0\nsamples = 1\nvalue = [0, 0, 0, 1, 0, 0, 0]\nclass = CALI", fillcolor="#39e5e2"] ;
487 -> 488 ;
489 [label="entropy = 0.0\nsamples = 2\nvalue = [0, 0, 0, 0, 0, 0, 6]\nclass = SIRA", fillcolor="#e53986"] ;
487 -> 489 ;
490 [label="entropy = 0.0\nsamples = 4\nvalue = [0, 11, 0, 0, 0, 0, 0]\nclass = BARBUNYA", fillcolor="#b7e539"] ;
480 -> 490 ;
491 [label="compactness <= 0.834\nentropy = 1.094\nsamples = 31\nvalue = [13, 37, 0, 3, 0, 0, 0]\nclass = BARBUNYA", fillcolor="#d4ef88"] ;
459 -> 491 ;
492 [label="compactness <= 0.81\nentropy = 0.235\nsamples = 17\nvalue = [1, 25, 0, 0, 0, 0, 0]\nclass = BARBUNYA", fillcolor="#bae641"] ;
491 -> 492 ;
493 [label="entropy = 1.0\nsamples = 2\nvalue = [1, 1, 0, 0, 0, 0, 0]\nclass = SEKER", fillcolor="#ffffff"] ;
492 -> 493 ;
494 [label="entropy = 0.0\nsamples = 15\nvalue = [0, 24, 0, 0, 0, 0, 0]\nclass = BARBUNYA", fillcolor="#b7e539"] ;
492 -> 494 ;
495 [label="area <= 51883.5\nentropy = 1.392\nsamples = 14\nvalue = [12, 12, 0, 3, 0, 0, 0]\nclass = SEKER", fillcolor="#ffffff"] ;
491 -> 495 ;
496 [label="entropy = 0.0\nsamples = 5\nvalue = [10, 0, 0, 0, 0, 0, 0]\nclass = SEKER", fillcolor="#e58139"] ;
495 -> 496 ;
497 [label="extent <= 0.784\nentropy = 1.16\nsamples = 9\nvalue = [2, 12, 0, 3, 0, 0, 0]\nclass = BARBUNYA", fillcolor="#d1ee80"] ;
495 -> 497 ;
498 [label="roundness <= 0.867\nentropy = 0.722\nsamples = 8\nvalue = [0, 12, 0, 3, 0, 0, 0]\nclass = BARBUNYA", fillcolor="#c9ec6a"] ;
497 -> 498 ;
499 [label="entropy = 0.0\nsamples = 6\nvalue = [0, 12, 0, 0, 0, 0, 0]\nclass = BARBUNYA", fillcolor="#b7e539"] ;
498 -> 499 ;
500 [label="entropy = 0.0\nsamples = 2\nvalue = [0, 0, 0, 3, 0, 0, 0]\nclass = CALI", fillcolor="#39e5e2"] ;
498 -> 500 ;
501 [label="entropy = 0.0\nsamples = 1\nvalue = [2, 0, 0, 0, 0, 0, 0]\nclass = SEKER", fillcolor="#e58139"] ;
497 -> 501 ;
502 [label="majoraxislength <= 361.777\nentropy = 1.33\nsamples = 119\nvalue = [3, 115, 0, 51, 0, 12, 1]\nclass = BARBUNYA", fillcolor="#dcf29e"] ;
458 -> 502 ;
503 [label="solidity <= 0.988\nentropy = 0.749\nsamples = 81\nvalue = [3, 105, 0, 18, 0, 0, 0]\nclass = BARBUNYA", fillcolor="#c5ea60"] ;
502 -> 503 ;
504 [label="solidity <= 0.98\nentropy = 0.239\nsamples = 65\nvalue = [0, 98, 0, 4, 0, 0, 0]\nclass = BARBUNYA", fillcolor="#bae641"] ;
503 -> 504 ;
505 [label="solidity <= 0.98\nentropy = 0.567\nsamples = 20\nvalue = [0, 26, 0, 4, 0, 0, 0]\nclass = BARBUNYA", fillcolor="#c2e957"] ;
504 -> 505 ;
506 [label="equivdiameter <= 274.244\nentropy = 0.229\nsamples = 18\nvalue = [0, 26, 0, 1, 0, 0, 0]\nclass = BARBUNYA", fillcolor="#bae641"] ;
505 -> 506 ;
507 [label="extent <= 0.761\nentropy = 0.65\nsamples = 4\nvalue = [0, 5, 0, 1, 0, 0, 0]\nclass = BARBUNYA", fillcolor="#c5ea61"] ;
506 -> 507 ;
508 [label="entropy = 0.0\nsamples = 3\nvalue = [0, 5, 0, 0, 0, 0, 0]\nclass = BARBUNYA", fillcolor="#b7e539"] ;
507 -> 508 ;
509 [label="entropy = 0.0\nsamples = 1\nvalue = [0, 0, 0, 1, 0, 0, 0]\nclass = CALI", fillcolor="#39e5e2"] ;
507 -> 509 ;
510 [label="entropy = 0.0\nsamples = 14\nvalue = [0, 21, 0, 0, 0, 0, 0]\nclass = BARBUNYA", fillcolor="#b7e539"] ;
506 -> 510 ;
511 [label="entropy = 0.0\nsamples = 2\nvalue = [0, 0, 0, 3, 0, 0, 0]\nclass = CALI", fillcolor="#39e5e2"] ;
505 -> 511 ;
512 [label="entropy = 0.0\nsamples = 45\nvalue = [0, 72, 0, 0, 0, 0, 0]\nclass = BARBUNYA", fillcolor="#b7e539"] ;
504 -> 512 ;
513 [label="compactness <= 0.85\nentropy = 1.347\nsamples = 16\nvalue = [3, 7, 0, 14, 0, 0, 0]\nclass = CALI", fillcolor="#adf4f3"] ;
503 -> 513 ;
514 [label="area <= 61715.0\nentropy = 0.918\nsamples = 15\nvalue = [0, 7, 0, 14, 0, 0, 0]\nclass = CALI", fillcolor="#9cf2f0"] ;
513 -> 514 ;
515 [label="equivdiameter <= 275.727\nentropy = 0.592\nsamples = 9\nvalue = [0, 2, 0, 12, 0, 0, 0]\nclass = CALI", fillcolor="#5ae9e7"] ;
514 -> 515 ;
516 [label="aspectration <= 1.637\nentropy = 1.0\nsamples = 4\nvalue = [0, 2, 0, 2, 0, 0, 0]\nclass = BARBUNYA", fillcolor="#ffffff"] ;
515 -> 516 ;
517 [label="entropy = 0.0\nsamples = 2\nvalue = [0, 2, 0, 0, 0, 0, 0]\nclass = BARBUNYA", fillcolor="#b7e539"] ;
516 -> 517 ;
518 [label="entropy = 0.0\nsamples = 2\nvalue = [0, 0, 0, 2, 0, 0, 0]\nclass = CALI", fillcolor="#39e5e2"] ;
516 -> 518 ;
519 [label="entropy = 0.0\nsamples = 5\nvalue = [0, 0, 0, 10, 0, 0, 0]\nclass = CALI", fillcolor="#39e5e2"] ;
515 -> 519 ;
520 [label="extent <= 0.757\nentropy = 0.863\nsamples = 6\nvalue = [0, 5, 0, 2, 0, 0, 0]\nclass = BARBUNYA", fillcolor="#d4ef88"] ;
514 -> 520 ;
521 [label="equivdiameter <= 284.862\nentropy = 0.918\nsamples = 3\nvalue = [0, 1, 0, 2, 0, 0, 0]\nclass = CALI", fillcolor="#9cf2f0"] ;
520 -> 521 ;
522 [label="entropy = 0.0\nsamples = 2\nvalue = [0, 0, 0, 2, 0, 0, 0]\nclass = CALI", fillcolor="#39e5e2"] ;
521 -> 522 ;
523 [label="entropy = 0.0\nsamples = 1\nvalue = [0, 1, 0, 0, 0, 0, 0]\nclass = BARBUNYA", fillcolor="#b7e539"] ;
521 -> 523 ;
524 [label="entropy = 0.0\nsamples = 3\nvalue = [0, 4, 0, 0, 0, 0, 0]\nclass = BARBUNYA", fillcolor="#b7e539"] ;
520 -> 524 ;
525 [label="entropy = 0.0\nsamples = 1\nvalue = [3, 0, 0, 0, 0, 0, 0]\nclass = SEKER", fillcolor="#e58139"] ;
513 -> 525 ;
526 [label="shapefactor1 <= 0.006\nentropy = 1.473\nsamples = 38\nvalue = [0, 10, 0, 33, 0, 12, 1]\nclass = CALI", fillcolor="#a0f3f1"] ;
502 -> 526 ;
527 [label="shapefactor4 <= 0.997\nentropy = 0.732\nsamples = 26\nvalue = [0, 5, 0, 32, 0, 1, 0]\nclass = CALI", fillcolor="#5deae7"] ;
526 -> 527 ;
528 [label="majoraxislength <= 361.921\nentropy = 0.39\nsamples = 22\nvalue = [0, 1, 0, 31, 0, 1, 0]\nclass = CALI", fillcolor="#45e7e4"] ;
527 -> 528 ;
529 [label="entropy = 0.0\nsamples = 1\nvalue = [0, 0, 0, 0, 0, 1, 0]\nclass = HOROZ", fillcolor="#b139e5"] ;
528 -> 529 ;
530 [label="perimeter <= 995.027\nentropy = 0.201\nsamples = 21\nvalue = [0, 1, 0, 31, 0, 0, 0]\nclass = CALI", fillcolor="#3fe6e3"] ;
528 -> 530 ;
531 [label="entropy = 0.0\nsamples = 20\nvalue = [0, 0, 0, 31, 0, 0, 0]\nclass = CALI", fillcolor="#39e5e2"] ;
530 -> 531 ;
532 [label="entropy = 0.0\nsamples = 1\nvalue = [0, 1, 0, 0, 0, 0, 0]\nclass = BARBUNYA", fillcolor="#b7e539"] ;
530 -> 532 ;
533 [label="compactness <= 0.76\nentropy = 0.722\nsamples = 4\nvalue = [0, 4, 0, 1, 0, 0, 0]\nclass = BARBUNYA", fillcolor="#c9ec6a"] ;
527 -> 533 ;
534 [label="entropy = 0.0\nsamples = 1\nvalue = [0, 0, 0, 1, 0, 0, 0]\nclass = CALI", fillcolor="#39e5e2"] ;
533 -> 534 ;
535 [label="entropy = 0.0\nsamples = 3\nvalue = [0, 4, 0, 0, 0, 0, 0]\nclass = BARBUNYA", fillcolor="#b7e539"] ;
533 -> 535 ;
536 [label="shapefactor2 <= 0.001\nentropy = 1.411\nsamples = 12\nvalue = [0, 5, 0, 1, 0, 11, 1]\nclass = HOROZ", fillcolor="#dba4f3"] ;
526 -> 536 ;
537 [label="compactness <= 0.712\nentropy = 0.544\nsamples = 4\nvalue = [0, 0, 0, 0, 0, 7, 1]\nclass = HOROZ", fillcolor="#bc55e9"] ;
536 -> 537 ;
538 [label="entropy = 0.0\nsamples = 1\nvalue = [0, 0, 0, 0, 0, 0, 1]\nclass = SIRA", fillcolor="#e53986"] ;
537 -> 538 ;
539 [label="entropy = 0.0\nsamples = 3\nvalue = [0, 0, 0, 0, 0, 7, 0]\nclass = HOROZ", fillcolor="#b139e5"] ;
537 -> 539 ;
540 [label="compactness <= 0.719\nentropy = 1.361\nsamples = 8\nvalue = [0, 5, 0, 1, 0, 4, 0]\nclass = BARBUNYA", fillcolor="#f3fbde"] ;
536 -> 540 ;
541 [label="entropy = 0.918\nsamples = 2\nvalue = [0, 2, 0, 1, 0, 0, 0]\nclass = BARBUNYA", fillcolor="#dbf29c"] ;
540 -> 541 ;
542 [label="roundness <= 0.763\nentropy = 0.985\nsamples = 6\nvalue = [0, 3, 0, 0, 0, 4, 0]\nclass = HOROZ", fillcolor="#eccef8"] ;
540 -> 542 ;
543 [label="entropy = 0.0\nsamples = 1\nvalue = [0, 2, 0, 0, 0, 0, 0]\nclass = BARBUNYA", fillcolor="#b7e539"] ;
542 -> 543 ;
544 [label="shapefactor4 <= 0.997\nentropy = 0.722\nsamples = 5\nvalue = [0, 1, 0, 0, 0, 4, 0]\nclass = HOROZ", fillcolor="#c46aec"] ;
542 -> 544 ;
545 [label="entropy = 0.0\nsamples = 4\nvalue = [0, 0, 0, 0, 0, 4, 0]\nclass = HOROZ", fillcolor="#b139e5"] ;
544 -> 545 ;
546 [label="entropy = 0.0\nsamples = 1\nvalue = [0, 1, 0, 0, 0, 0, 0]\nclass = BARBUNYA", fillcolor="#b7e539"] ;
544 -> 546 ;
547 [label="roundness <= 0.836\nentropy = 0.521\nsamples = 489\nvalue = [0.0, 7.0, 0.0, 6.0, 0.0, 671.0, 54.0]\nclass = HOROZ", fillcolor="#b94ce8"] ;
457 -> 547 ;
548 [label="eccentricity <= 0.843\nentropy = 0.144\nsamples = 454\nvalue = [0, 3, 0, 6, 0, 661, 2]\nclass = HOROZ", fillcolor="#b23ce5"] ;
547 -> 548 ;
549 [label="shapefactor4 <= 0.994\nentropy = 0.97\nsamples = 27\nvalue = [0, 3, 0, 1, 0, 26, 2]\nclass = HOROZ", fillcolor="#c162ea"] ;
548 -> 549 ;
550 [label="entropy = 0.0\nsamples = 19\nvalue = [0, 0, 0, 0, 0, 22, 0]\nclass = HOROZ", fillcolor="#b139e5"] ;
549 -> 550 ;
551 [label="perimeter <= 919.246\nentropy = 1.846\nsamples = 8\nvalue = [0, 3, 0, 1, 0, 4, 2]\nclass = HOROZ", fillcolor="#f4e3fb"] ;
549 -> 551 ;
552 [label="compactness <= 0.746\nentropy = 0.918\nsamples = 5\nvalue = [0, 0, 0, 0, 0, 4, 2]\nclass = HOROZ", fillcolor="#d89cf2"] ;
551 -> 552 ;
553 [label="extent <= 0.666\nentropy = 0.918\nsamples = 3\nvalue = [0, 0, 0, 0, 0, 1, 2]\nclass = SIRA", fillcolor="#f29cc2"] ;
552 -> 553 ;
554 [label="entropy = 0.0\nsamples = 1\nvalue = [0, 0, 0, 0, 0, 1, 0]\nclass = HOROZ", fillcolor="#b139e5"] ;
553 -> 554 ;
555 [label="entropy = 0.0\nsamples = 2\nvalue = [0, 0, 0, 0, 0, 0, 2]\nclass = SIRA", fillcolor="#e53986"] ;
553 -> 555 ;
556 [label="entropy = 0.0\nsamples = 2\nvalue = [0, 0, 0, 0, 0, 3, 0]\nclass = HOROZ", fillcolor="#b139e5"] ;
552 -> 556 ;
557 [label="shapefactor2 <= 0.001\nentropy = 0.811\nsamples = 3\nvalue = [0, 3, 0, 1, 0, 0, 0]\nclass = BARBUNYA", fillcolor="#cfee7b"] ;
551 -> 557 ;
558 [label="entropy = 0.0\nsamples = 1\nvalue = [0, 0, 0, 1, 0, 0, 0]\nclass = CALI", fillcolor="#39e5e2"] ;
557 -> 558 ;
559 [label="entropy = 0.0\nsamples = 2\nvalue = [0, 3, 0, 0, 0, 0, 0]\nclass = BARBUNYA", fillcolor="#b7e539"] ;
557 -> 559 ;
560 [label="area <= 56259.0\nentropy = 0.066\nsamples = 427\nvalue = [0, 0, 0, 5, 0, 635, 0]\nclass = HOROZ", fillcolor="#b23be5"] ;
548 -> 560 ;
561 [label="entropy = 0.0\nsamples = 258\nvalue = [0, 0, 0, 0, 0, 395, 0]\nclass = HOROZ", fillcolor="#b139e5"] ;
560 -> 561 ;
562 [label="eccentricity <= 0.863\nentropy = 0.144\nsamples = 169\nvalue = [0, 0, 0, 5, 0, 240, 0]\nclass = HOROZ", fillcolor="#b33de6"] ;
560 -> 562 ;
563 [label="solidity <= 0.99\nentropy = 0.451\nsamples = 37\nvalue = [0, 0, 0, 5, 0, 48, 0]\nclass = HOROZ", fillcolor="#b94ee8"] ;
562 -> 563 ;
564 [label="equivdiameter <= 267.92\nentropy = 0.262\nsamples = 33\nvalue = [0, 0, 0, 2, 0, 43, 0]\nclass = HOROZ", fillcolor="#b542e6"] ;
563 -> 564 ;
565 [label="entropy = 0.0\nsamples = 1\nvalue = [0, 0, 0, 1, 0, 0, 0]\nclass = CALI", fillcolor="#39e5e2"] ;
564 -> 565 ;
566 [label="area <= 62063.0\nentropy = 0.156\nsamples = 32\nvalue = [0, 0, 0, 1, 0, 43, 0]\nclass = HOROZ", fillcolor="#b33ee6"] ;
564 -> 566 ;
567 [label="entropy = 0.0\nsamples = 31\nvalue = [0, 0, 0, 0, 0, 43, 0]\nclass = HOROZ", fillcolor="#b139e5"] ;
566 -> 567 ;
568 [label="entropy = 0.0\nsamples = 1\nvalue = [0, 0, 0, 1, 0, 0, 0]\nclass = CALI", fillcolor="#39e5e2"] ;
566 -> 568 ;
569 [label="shapefactor3 <= 0.511\nentropy = 0.954\nsamples = 4\nvalue = [0, 0, 0, 3, 0, 5, 0]\nclass = HOROZ", fillcolor="#e0b0f5"] ;
563 -> 569 ;
570 [label="entropy = 0.0\nsamples = 3\nvalue = [0, 0, 0, 0, 0, 5, 0]\nclass = HOROZ", fillcolor="#b139e5"] ;
569 -> 570 ;
571 [label="entropy = 0.0\nsamples = 1\nvalue = [0, 0, 0, 3, 0, 0, 0]\nclass = CALI", fillcolor="#39e5e2"] ;
569 -> 571 ;
572 [label="entropy = 0.0\nsamples = 132\nvalue = [0, 0, 0, 0, 0, 192, 0]\nclass = HOROZ", fillcolor="#b139e5"] ;
562 -> 572 ;
573 [label="area <= 51066.5\nentropy = 0.929\nsamples = 35\nvalue = [0, 4, 0, 0, 0, 10, 52]\nclass = SIRA", fillcolor="#ec6aa4"] ;
547 -> 573 ;
574 [label="shapefactor3 <= 0.573\nentropy = 1.566\nsamples = 5\nvalue = [0, 4, 0, 0, 0, 6, 5]\nclass = HOROZ", fillcolor="#f7ebfc"] ;
573 -> 574 ;
575 [label="entropy = 0.0\nsamples = 2\nvalue = [0, 0, 0, 0, 0, 6, 0]\nclass = HOROZ", fillcolor="#b139e5"] ;
574 -> 575 ;
576 [label="shapefactor1 <= 0.007\nentropy = 0.991\nsamples = 3\nvalue = [0, 4, 0, 0, 0, 0, 5]\nclass = SIRA", fillcolor="#fad7e7"] ;
574 -> 576 ;
577 [label="entropy = 0.918\nsamples = 2\nvalue = [0, 4, 0, 0, 0, 0, 2]\nclass = BARBUNYA", fillcolor="#dbf29c"] ;
576 -> 577 ;
578 [label="entropy = 0.0\nsamples = 1\nvalue = [0, 0, 0, 0, 0, 0, 3]\nclass = SIRA", fillcolor="#e53986"] ;
576 -> 578 ;
579 [label="eccentricity <= 0.84\nentropy = 0.397\nsamples = 30\nvalue = [0, 0, 0, 0, 0, 4, 47]\nclass = SIRA", fillcolor="#e74a90"] ;
573 -> 579 ;
580 [label="minoraxislength <= 198.734\nentropy = 0.258\nsamples = 27\nvalue = [0, 0, 0, 0, 0, 2, 44]\nclass = SIRA", fillcolor="#e6428c"] ;
579 -> 580 ;
581 [label="entropy = 0.0\nsamples = 19\nvalue = [0, 0, 0, 0, 0, 0, 30]\nclass = SIRA", fillcolor="#e53986"] ;
580 -> 581 ;
582 [label="minoraxislength <= 198.796\nentropy = 0.544\nsamples = 8\nvalue = [0, 0, 0, 0, 0, 2, 14]\nclass = SIRA", fillcolor="#e95597"] ;
580 -> 582 ;
583 [label="entropy = 0.0\nsamples = 1\nvalue = [0, 0, 0, 0, 0, 2, 0]\nclass = HOROZ", fillcolor="#b139e5"] ;
582 -> 583 ;
584 [label="entropy = 0.0\nsamples = 7\nvalue = [0, 0, 0, 0, 0, 0, 14]\nclass = SIRA", fillcolor="#e53986"] ;
582 -> 584 ;
585 [label="extent <= 0.657\nentropy = 0.971\nsamples = 3\nvalue = [0, 0, 0, 0, 0, 2, 3]\nclass = SIRA", fillcolor="#f6bdd7"] ;
579 -> 585 ;
586 [label="entropy = 0.0\nsamples = 2\nvalue = [0, 0, 0, 0, 0, 2, 0]\nclass = HOROZ", fillcolor="#b139e5"] ;
585 -> 586 ;
587 [label="entropy = 0.0\nsamples = 1\nvalue = [0, 0, 0, 0, 0, 0, 3]\nclass = SIRA", fillcolor="#e53986"] ;
585 -> 587 ;
588 [label="equivdiameter <= 385.392\nentropy = 1.648\nsamples = 999\nvalue = [0.0, 490.0, 292.0, 761.0, 0.0, 55.0, 0.0]\nclass = CALI", fillcolor="#cff9f8"] ;
456 -> 588 ;
589 [label="roundness <= 0.813\nentropy = 1.185\nsamples = 817\nvalue = [0, 490, 1, 761, 0, 55, 0]\nclass = CALI", fillcolor="#bdf6f5"] ;
588 -> 589 ;
590 [label="shapefactor2 <= 0.001\nentropy = 1.024\nsamples = 268\nvalue = [0, 326, 0, 56, 0, 45, 0]\nclass = BARBUNYA", fillcolor="#cbec6f"] ;
589 -> 590 ;
591 [label="convexarea <= 75439.0\nentropy = 1.533\nsamples = 87\nvalue = [0, 27, 0, 53, 0, 45, 0]\nclass = CALI", fillcolor="#ebfcfc"] ;
590 -> 591 ;
592 [label="roundness <= 0.782\nentropy = 1.181\nsamples = 51\nvalue = [0, 4, 0, 23, 0, 45, 0]\nclass = HOROZ", fillcolor="#dca6f3"] ;
591 -> 592 ;
593 [label="area <= 72304.5\nentropy = 0.353\nsamples = 20\nvalue = [0, 2, 0, 0, 0, 28, 0]\nclass = HOROZ", fillcolor="#b747e7"] ;
592 -> 593 ;
594 [label="entropy = 0.0\nsamples = 18\nvalue = [0, 0, 0, 0, 0, 28, 0]\nclass = HOROZ", fillcolor="#b139e5"] ;
593 -> 594 ;
595 [label="entropy = 0.0\nsamples = 2\nvalue = [0, 2, 0, 0, 0, 0, 0]\nclass = BARBUNYA", fillcolor="#b7e539"] ;
593 -> 595 ;
596 [label="eccentricity <= 0.863\nentropy = 1.213\nsamples = 31\nvalue = [0.0, 2.0, 0.0, 23.0, 0.0, 17.0, 0.0]\nclass = CALI", fillcolor="#cff9f8"] ;
592 -> 596 ;
597 [label="convexarea <= 66996.0\nentropy = 0.926\nsamples = 22\nvalue = [0, 2, 0, 23, 0, 4, 0]\nclass = CALI", fillcolor="#69ebe9"] ;
596 -> 597 ;
598 [label="shapefactor4 <= 0.992\nentropy = 0.918\nsamples = 5\nvalue = [0, 0, 0, 2, 0, 4, 0]\nclass = HOROZ", fillcolor="#d89cf2"] ;
597 -> 598 ;
599 [label="entropy = 0.0\nsamples = 3\nvalue = [0, 0, 0, 0, 0, 4, 0]\nclass = HOROZ", fillcolor="#b139e5"] ;
598 -> 599 ;
600 [label="entropy = 0.0\nsamples = 2\nvalue = [0, 0, 0, 2, 0, 0, 0]\nclass = CALI", fillcolor="#39e5e2"] ;
598 -> 600 ;
601 [label="shapefactor4 <= 0.995\nentropy = 0.426\nsamples = 17\nvalue = [0, 2, 0, 21, 0, 0, 0]\nclass = CALI", fillcolor="#4ce7e5"] ;
597 -> 601 ;
602 [label="entropy = 0.0\nsamples = 12\nvalue = [0, 0, 0, 16, 0, 0, 0]\nclass = CALI", fillcolor="#39e5e2"] ;
601 -> 602 ;
603 [label="extent <= 0.695\nentropy = 0.863\nsamples = 5\nvalue = [0, 2, 0, 5, 0, 0, 0]\nclass = CALI", fillcolor="#88efee"] ;
601 -> 603 ;
604 [label="entropy = 0.0\nsamples = 1\nvalue = [0, 1, 0, 0, 0, 0, 0]\nclass = BARBUNYA", fillcolor="#b7e539"] ;
603 -> 604 ;
605 [label="perimeter <= 1027.227\nentropy = 0.65\nsamples = 4\nvalue = [0, 1, 0, 5, 0, 0, 0]\nclass = CALI", fillcolor="#61eae8"] ;
603 -> 605 ;
606 [label="entropy = 1.0\nsamples = 2\nvalue = [0, 1, 0, 1, 0, 0, 0]\nclass = BARBUNYA", fillcolor="#ffffff"] ;
605 -> 606 ;
607 [label="entropy = 0.0\nsamples = 2\nvalue = [0, 0, 0, 4, 0, 0, 0]\nclass = CALI", fillcolor="#39e5e2"] ;
605 -> 607 ;
608 [label="entropy = 0.0\nsamples = 9\nvalue = [0, 0, 0, 0, 0, 13, 0]\nclass = HOROZ", fillcolor="#b139e5"] ;
596 -> 608 ;
609 [label="roundness <= 0.782\nentropy = 0.987\nsamples = 36\nvalue = [0, 23, 0, 30, 0, 0, 0]\nclass = CALI", fillcolor="#d1f9f8"] ;
591 -> 609 ;
610 [label="perimeter <= 1108.657\nentropy = 0.286\nsamples = 12\nvalue = [0, 19, 0, 1, 0, 0, 0]\nclass = BARBUNYA", fillcolor="#bbe643"] ;
609 -> 610 ;
611 [label="entropy = 0.0\nsamples = 1\nvalue = [0, 0, 0, 1, 0, 0, 0]\nclass = CALI", fillcolor="#39e5e2"] ;
610 -> 611 ;
612 [label="entropy = 0.0\nsamples = 11\nvalue = [0, 19, 0, 0, 0, 0, 0]\nclass = BARBUNYA", fillcolor="#b7e539"] ;
610 -> 612 ;
613 [label="compactness <= 0.765\nentropy = 0.533\nsamples = 24\nvalue = [0, 4, 0, 29, 0, 0, 0]\nclass = CALI", fillcolor="#54e9e6"] ;
609 -> 613 ;
614 [label="convexarea <= 76946.5\nentropy = 0.211\nsamples = 21\nvalue = [0, 1, 0, 29, 0, 0, 0]\nclass = CALI", fillcolor="#40e6e3"] ;
613 -> 614 ;
615 [label="shapefactor3 <= 0.557\nentropy = 0.65\nsamples = 6\nvalue = [0, 1, 0, 5, 0, 0, 0]\nclass = CALI", fillcolor="#61eae8"] ;
614 -> 615 ;
616 [label="entropy = 0.0\nsamples = 5\nvalue = [0, 0, 0, 5, 0, 0, 0]\nclass = CALI", fillcolor="#39e5e2"] ;
615 -> 616 ;
617 [label="entropy = 0.0\nsamples = 1\nvalue = [0, 1, 0, 0, 0, 0, 0]\nclass = BARBUNYA", fillcolor="#b7e539"] ;
615 -> 617 ;
618 [label="entropy = 0.0\nsamples = 15\nvalue = [0, 0, 0, 24, 0, 0, 0]\nclass = CALI", fillcolor="#39e5e2"] ;
614 -> 618 ;
619 [label="entropy = 0.0\nsamples = 3\nvalue = [0, 3, 0, 0, 0, 0, 0]\nclass = BARBUNYA", fillcolor="#b7e539"] ;
613 -> 619 ;
620 [label="perimeter <= 1081.747\nentropy = 0.08\nsamples = 181\nvalue = [0, 299, 0, 3, 0, 0, 0]\nclass = BARBUNYA", fillcolor="#b8e53b"] ;
590 -> 620 ;
621 [label="roundness <= 0.802\nentropy = 0.179\nsamples = 73\nvalue = [0, 108, 0, 3, 0, 0, 0]\nclass = BARBUNYA", fillcolor="#b9e63e"] ;
620 -> 621 ;
622 [label="entropy = 0.0\nsamples = 48\nvalue = [0, 69, 0, 0, 0, 0, 0]\nclass = BARBUNYA", fillcolor="#b7e539"] ;
621 -> 622 ;
623 [label="shapefactor3 <= 0.617\nentropy = 0.371\nsamples = 25\nvalue = [0, 39, 0, 3, 0, 0, 0]\nclass = BARBUNYA", fillcolor="#bde748"] ;
621 -> 623 ;
624 [label="solidity <= 0.983\nentropy = 0.811\nsamples = 3\nvalue = [0, 1, 0, 3, 0, 0, 0]\nclass = CALI", fillcolor="#7beeec"] ;
623 -> 624 ;
625 [label="entropy = 0.0\nsamples = 2\nvalue = [0, 0, 0, 3, 0, 0, 0]\nclass = CALI", fillcolor="#39e5e2"] ;
624 -> 625 ;
626 [label="entropy = 0.0\nsamples = 1\nvalue = [0, 1, 0, 0, 0, 0, 0]\nclass = BARBUNYA", fillcolor="#b7e539"] ;
624 -> 626 ;
627 [label="entropy = 0.0\nsamples = 22\nvalue = [0, 38, 0, 0, 0, 0, 0]\nclass = BARBUNYA", fillcolor="#b7e539"] ;
623 -> 627 ;
628 [label="entropy = 0.0\nsamples = 108\nvalue = [0, 191, 0, 0, 0, 0, 0]\nclass = BARBUNYA", fillcolor="#b7e539"] ;
620 -> 628 ;
629 [label="shapefactor3 <= 0.619\nentropy = 0.792\nsamples = 549\nvalue = [0, 164, 1, 705, 0, 10, 0]\nclass = CALI", fillcolor="#69ebe9"] ;
589 -> 629 ;
630 [label="shapefactor4 <= 0.995\nentropy = 0.368\nsamples = 445\nvalue = [0, 32, 0, 675, 0, 10, 0]\nclass = CALI", fillcolor="#45e7e4"] ;
629 -> 630 ;
631 [label="aspectration <= 1.946\nentropy = 0.138\nsamples = 369\nvalue = [0.0, 3.0, 0.0, 584.0, 0.0, 7.0, 0.0]\nclass = CALI", fillcolor="#3ce5e2"] ;
630 -> 631 ;
632 [label="minoraxislength <= 212.338\nentropy = 0.079\nsamples = 368\nvalue = [0, 3, 0, 584, 0, 2, 0]\nclass = CALI", fillcolor="#3be5e2"] ;
631 -> 632 ;
633 [label="entropy = 0.0\nsamples = 1\nvalue = [0, 0, 0, 0, 0, 1, 0]\nclass = HOROZ", fillcolor="#b139e5"] ;
632 -> 633 ;
634 [label="eccentricity <= 0.807\nentropy = 0.064\nsamples = 367\nvalue = [0.0, 3.0, 0.0, 584.0, 0.0, 1.0, 0.0]\nclass = CALI", fillcolor="#3ae5e2"] ;
632 -> 634 ;
635 [label="eccentricity <= 0.807\nentropy = 0.18\nsamples = 102\nvalue = [0, 3, 0, 166, 0, 1, 0]\nclass = CALI", fillcolor="#3ee6e3"] ;
634 -> 635 ;
636 [label="roundness <= 0.827\nentropy = 0.145\nsamples = 101\nvalue = [0, 2, 0, 166, 0, 1, 0]\nclass = CALI", fillcolor="#3de5e3"] ;
635 -> 636 ;
637 [label="majoraxislength <= 380.357\nentropy = 1.5\nsamples = 3\nvalue = [0, 1, 0, 2, 0, 1, 0]\nclass = CALI", fillcolor="#bdf6f5"] ;
636 -> 637 ;
638 [label="entropy = 0.0\nsamples = 1\nvalue = [0, 0, 0, 2, 0, 0, 0]\nclass = CALI", fillcolor="#39e5e2"] ;
637 -> 638 ;
639 [label="entropy = 1.0\nsamples = 2\nvalue = [0, 1, 0, 0, 0, 1, 0]\nclass = BARBUNYA", fillcolor="#ffffff"] ;
637 -> 639 ;
640 [label="area <= 68476.0\nentropy = 0.053\nsamples = 98\nvalue = [0, 1, 0, 164, 0, 0, 0]\nclass = CALI", fillcolor="#3ae5e2"] ;
636 -> 640 ;
641 [label="equivdiameter <= 295.174\nentropy = 0.242\nsamples = 15\nvalue = [0, 1, 0, 24, 0, 0, 0]\nclass = CALI", fillcolor="#41e6e3"] ;
640 -> 641 ;
642 [label="entropy = 0.0\nsamples = 14\nvalue = [0, 0, 0, 24, 0, 0, 0]\nclass = CALI", fillcolor="#39e5e2"] ;
641 -> 642 ;
643 [label="entropy = 0.0\nsamples = 1\nvalue = [0, 1, 0, 0, 0, 0, 0]\nclass = BARBUNYA", fillcolor="#b7e539"] ;
641 -> 643 ;
644 [label="entropy = 0.0\nsamples = 83\nvalue = [0, 0, 0, 140, 0, 0, 0]\nclass = CALI", fillcolor="#39e5e2"] ;
640 -> 644 ;
645 [label="entropy = 0.0\nsamples = 1\nvalue = [0, 1, 0, 0, 0, 0, 0]\nclass = BARBUNYA", fillcolor="#b7e539"] ;
635 -> 645 ;
646 [label="entropy = 0.0\nsamples = 265\nvalue = [0, 0, 0, 418, 0, 0, 0]\nclass = CALI", fillcolor="#39e5e2"] ;
634 -> 646 ;
647 [label="entropy = 0.0\nsamples = 1\nvalue = [0, 0, 0, 0, 0, 5, 0]\nclass = HOROZ", fillcolor="#b139e5"] ;
631 -> 647 ;
648 [label="solidity <= 0.988\nentropy = 0.944\nsamples = 76\nvalue = [0, 29, 0, 91, 0, 3, 0]\nclass = CALI", fillcolor="#7ceeec"] ;
630 -> 648 ;
649 [label="roundness <= 0.848\nentropy = 0.414\nsamples = 16\nvalue = [0, 22, 0, 2, 0, 0, 0]\nclass = BARBUNYA", fillcolor="#bee74b"] ;
648 -> 649 ;
650 [label="entropy = 0.0\nsamples = 15\nvalue = [0, 22, 0, 0, 0, 0, 0]\nclass = BARBUNYA", fillcolor="#b7e539"] ;
649 -> 650 ;
651 [label="entropy = 0.0\nsamples = 1\nvalue = [0, 0, 0, 2, 0, 0, 0]\nclass = CALI", fillcolor="#39e5e2"] ;
649 -> 651 ;
652 [label="shapefactor2 <= 0.001\nentropy = 0.561\nsamples = 60\nvalue = [0, 7, 0, 89, 0, 3, 0]\nclass = CALI", fillcolor="#4fe8e5"] ;
648 -> 652 ;
653 [label="entropy = 0.0\nsamples = 1\nvalue = [0, 0, 0, 0, 0, 3, 0]\nclass = HOROZ", fillcolor="#b139e5"] ;
652 -> 653 ;
654 [label="majoraxislength <= 398.943\nentropy = 0.377\nsamples = 59\nvalue = [0, 7, 0, 89, 0, 0, 0]\nclass = CALI", fillcolor="#49e7e4"] ;
652 -> 654 ;
655 [label="entropy = 0.0\nsamples = 23\nvalue = [0, 0, 0, 36, 0, 0, 0]\nclass = CALI", fillcolor="#39e5e2"] ;
654 -> 655 ;
656 [label="shapefactor4 <= 0.997\nentropy = 0.52\nsamples = 36\nvalue = [0, 7, 0, 53, 0, 0, 0]\nclass = CALI", fillcolor="#53e8e6"] ;
654 -> 656 ;
657 [label="perimeter <= 1155.017\nentropy = 0.235\nsamples = 30\nvalue = [0, 2, 0, 50, 0, 0, 0]\nclass = CALI", fillcolor="#41e6e3"] ;
656 -> 657 ;
658 [label="entropy = 0.0\nsamples = 28\nvalue = [0, 0, 0, 49, 0, 0, 0]\nclass = CALI", fillcolor="#39e5e2"] ;
657 -> 658 ;
659 [label="entropy = 0.918\nsamples = 2\nvalue = [0, 2, 0, 1, 0, 0, 0]\nclass = BARBUNYA", fillcolor="#dbf29c"] ;
657 -> 659 ;
660 [label="equivdiameter <= 311.23\nentropy = 0.954\nsamples = 6\nvalue = [0, 5, 0, 3, 0, 0, 0]\nclass = BARBUNYA", fillcolor="#e2f5b0"] ;
656 -> 660 ;
661 [label="entropy = 0.0\nsamples = 3\nvalue = [0, 4, 0, 0, 0, 0, 0]\nclass = BARBUNYA", fillcolor="#b7e539"] ;
660 -> 661 ;
662 [label="equivdiameter <= 317.862\nentropy = 0.811\nsamples = 3\nvalue = [0, 1, 0, 3, 0, 0, 0]\nclass = CALI", fillcolor="#7beeec"] ;
660 -> 662 ;
663 [label="entropy = 0.0\nsamples = 2\nvalue = [0, 0, 0, 3, 0, 0, 0]\nclass = CALI", fillcolor="#39e5e2"] ;
662 -> 663 ;
664 [label="entropy = 0.0\nsamples = 1\nvalue = [0, 1, 0, 0, 0, 0, 0]\nclass = BARBUNYA", fillcolor="#b7e539"] ;
662 -> 664 ;
665 [label="shapefactor3 <= 0.648\nentropy = 0.741\nsamples = 104\nvalue = [0, 132, 1, 30, 0, 0, 0]\nclass = BARBUNYA", fillcolor="#c8eb67"] ;
629 -> 665 ;
666 [label="shapefactor1 <= 0.005\nentropy = 0.997\nsamples = 38\nvalue = [0, 32, 0, 28, 0, 0, 0]\nclass = BARBUNYA", fillcolor="#f6fce6"] ;
665 -> 666 ;
667 [label="eccentricity <= 0.774\nentropy = 0.918\nsamples = 22\nvalue = [0, 11, 0, 22, 0, 0, 0]\nclass = CALI", fillcolor="#9cf2f0"] ;
666 -> 667 ;
668 [label="extent <= 0.755\nentropy = 0.559\nsamples = 14\nvalue = [0, 3, 0, 20, 0, 0, 0]\nclass = CALI", fillcolor="#57e9e6"] ;
667 -> 668 ;
669 [label="eccentricity <= 0.767\nentropy = 0.971\nsamples = 5\nvalue = [0, 3, 0, 2, 0, 0, 0]\nclass = BARBUNYA", fillcolor="#e7f6bd"] ;
668 -> 669 ;
670 [label="entropy = 0.0\nsamples = 3\nvalue = [0, 3, 0, 0, 0, 0, 0]\nclass = BARBUNYA", fillcolor="#b7e539"] ;
669 -> 670 ;
671 [label="entropy = 0.0\nsamples = 2\nvalue = [0, 0, 0, 2, 0, 0, 0]\nclass = CALI", fillcolor="#39e5e2"] ;
669 -> 671 ;
672 [label="entropy = 0.0\nsamples = 9\nvalue = [0, 0, 0, 18, 0, 0, 0]\nclass = CALI", fillcolor="#39e5e2"] ;
668 -> 672 ;
673 [label="minoraxislength <= 244.779\nentropy = 0.722\nsamples = 8\nvalue = [0, 8, 0, 2, 0, 0, 0]\nclass = BARBUNYA", fillcolor="#c9ec6a"] ;
667 -> 673 ;
674 [label="entropy = 0.0\nsamples = 2\nvalue = [0, 0, 0, 2, 0, 0, 0]\nclass = CALI", fillcolor="#39e5e2"] ;
673 -> 674 ;
675 [label="entropy = 0.0\nsamples = 6\nvalue = [0, 8, 0, 0, 0, 0, 0]\nclass = BARBUNYA", fillcolor="#b7e539"] ;
673 -> 675 ;
676 [label="perimeter <= 1005.466\nentropy = 0.764\nsamples = 16\nvalue = [0, 21, 0, 6, 0, 0, 0]\nclass = BARBUNYA", fillcolor="#ccec72"] ;
666 -> 676 ;
677 [label="equivdiameter <= 291.131\nentropy = 0.985\nsamples = 8\nvalue = [0, 8, 0, 6, 0, 0, 0]\nclass = BARBUNYA", fillcolor="#edf8ce"] ;
676 -> 677 ;
678 [label="compactness <= 0.789\nentropy = 0.503\nsamples = 5\nvalue = [0, 8, 0, 1, 0, 0, 0]\nclass = BARBUNYA", fillcolor="#c0e852"] ;
677 -> 678 ;
679 [label="entropy = 0.0\nsamples = 1\nvalue = [0, 0, 0, 1, 0, 0, 0]\nclass = CALI", fillcolor="#39e5e2"] ;
678 -> 679 ;
680 [label="entropy = 0.0\nsamples = 4\nvalue = [0, 8, 0, 0, 0, 0, 0]\nclass = BARBUNYA", fillcolor="#b7e539"] ;
678 -> 680 ;
681 [label="entropy = 0.0\nsamples = 3\nvalue = [0, 0, 0, 5, 0, 0, 0]\nclass = CALI", fillcolor="#39e5e2"] ;
677 -> 681 ;
682 [label="entropy = 0.0\nsamples = 8\nvalue = [0, 13, 0, 0, 0, 0, 0]\nclass = BARBUNYA", fillcolor="#b7e539"] ;
676 -> 682 ;
683 [label="area <= 102787.5\nentropy = 0.217\nsamples = 66\nvalue = [0.0, 100.0, 1.0, 2.0, 0.0, 0.0, 0.0]\nclass = BARBUNYA", fillcolor="#b9e63f"] ;
665 -> 683 ;
684 [label="solidity <= 0.973\nentropy = 0.139\nsamples = 65\nvalue = [0, 100, 0, 2, 0, 0, 0]\nclass = BARBUNYA", fillcolor="#b8e63d"] ;
683 -> 684 ;
685 [label="entropy = 0.0\nsamples = 1\nvalue = [0, 0, 0, 1, 0, 0, 0]\nclass = CALI", fillcolor="#39e5e2"] ;
684 -> 685 ;
686 [label="compactness <= 0.811\nentropy = 0.08\nsamples = 64\nvalue = [0, 100, 0, 1, 0, 0, 0]\nclass = BARBUNYA", fillcolor="#b8e53b"] ;
684 -> 686 ;
687 [label="extent <= 0.727\nentropy = 0.31\nsamples = 10\nvalue = [0, 17, 0, 1, 0, 0, 0]\nclass = BARBUNYA", fillcolor="#bbe745"] ;
686 -> 687 ;
688 [label="entropy = 0.0\nsamples = 1\nvalue = [0, 0, 0, 1, 0, 0, 0]\nclass = CALI", fillcolor="#39e5e2"] ;
687 -> 688 ;
689 [label="entropy = 0.0\nsamples = 9\nvalue = [0, 17, 0, 0, 0, 0, 0]\nclass = BARBUNYA", fillcolor="#b7e539"] ;
687 -> 689 ;
690 [label="entropy = 0.0\nsamples = 54\nvalue = [0, 83, 0, 0, 0, 0, 0]\nclass = BARBUNYA", fillcolor="#b7e539"] ;
686 -> 690 ;
691 [label="entropy = 0.0\nsamples = 1\nvalue = [0, 0, 1, 0, 0, 0, 0]\nclass = BOMBAY", fillcolor="#39e54d"] ;
683 -> 691 ;
692 [label="entropy = 0.0\nsamples = 182\nvalue = [0, 0, 291, 0, 0, 0, 0]\nclass = BOMBAY", fillcolor="#39e54d"] ;
588 -> 692 ;
}
